digraph Tree {
node [shape=box, style="filled, rounded", color="black", fontname=helvetica] ;
edge [fontname=helvetica] ;
0 [label="O1 <= 4099.745\ngini = 0.495\nsamples = 14980\nvalue = [6723, 8257]\nclass = open", fillcolor="#daedfa"] ;
1 [label="P7 <= 4617.18\ngini = 0.487\nsamples = 13517\nvalue = [5676, 7841]\nclass = open", fillcolor="#c8e4f8"] ;
0 -> 1 [labeldistance=2.5, labelangle=45, headlabel="True"] ;
2 [label="F7 <= 4017.695\ngini = 0.498\nsamples = 6896\nvalue = [3647, 3249]\nclass = close", fillcolor="#fcf1e9"] ;
1 -> 2 ;
3 [label="F4 <= 4265.385\ngini = 0.484\nsamples = 5285\nvalue = [3117, 2168]\nclass = close", fillcolor="#f7d9c3"] ;
2 -> 3 ;
4 [label="O2 <= 4595.125\ngini = 0.48\nsamples = 1476\nvalue = [589, 887]\nclass = open", fillcolor="#bcdef6"] ;
3 -> 4 ;
5 [label="P7 <= 4609.485\ngini = 0.468\nsamples = 236\nvalue = [148, 88]\nclass = close", fillcolor="#f4ccaf"] ;
4 -> 5 ;
6 [label="T8 <= 4219.745\ngini = 0.37\nsamples = 139\nvalue = [105, 34]\nclass = close", fillcolor="#edaa79"] ;
5 -> 6 ;
7 [label="F4 <= 4248.975\ngini = 0.278\nsamples = 120\nvalue = [100, 20]\nclass = close", fillcolor="#ea9a61"] ;
6 -> 7 ;
8 [label="FC6 <= 4171.025\ngini = 0.473\nsamples = 13\nvalue = [5, 8]\nclass = open", fillcolor="#b5daf5"] ;
7 -> 8 ;
9 [label="AF3 <= 4264.615\ngini = 0.278\nsamples = 6\nvalue = [5, 1]\nclass = close", fillcolor="#ea9a61"] ;
8 -> 9 ;
10 [label="gini = 0.0\nsamples = 1\nvalue = [0, 1]\nclass = open", fillcolor="#399de5"] ;
9 -> 10 ;
11 [label="gini = 0.0\nsamples = 5\nvalue = [5, 0]\nclass = close", fillcolor="#e58139"] ;
9 -> 11 ;
12 [label="gini = 0.0\nsamples = 7\nvalue = [0, 7]\nclass = open", fillcolor="#399de5"] ;
8 -> 12 ;
13 [label="FC6 <= 4151.54\ngini = 0.199\nsamples = 107\nvalue = [95, 12]\nclass = close", fillcolor="#e89152"] ;
7 -> 13 ;
14 [label="gini = 0.0\nsamples = 4\nvalue = [0, 4]\nclass = open", fillcolor="#399de5"] ;
13 -> 14 ;
15 [label="FC6 <= 4189.485\ngini = 0.143\nsamples = 103\nvalue = [95, 8]\nclass = close", fillcolor="#e78c4a"] ;
13 -> 15 ;
16 [label="FC6 <= 4187.435\ngini = 0.044\nsamples = 89\nvalue = [87, 2]\nclass = close", fillcolor="#e6843e"] ;
15 -> 16 ;
17 [label="F3 <= 4260.255\ngini = 0.024\nsamples = 84\nvalue = [83, 1]\nclass = close", fillcolor="#e5833b"] ;
16 -> 17 ;
18 [label="gini = 0.0\nsamples = 79\nvalue = [79, 0]\nclass = close", fillcolor="#e58139"] ;
17 -> 18 ;
19 [label="T8 <= 4208.72\ngini = 0.32\nsamples = 5\nvalue = [4, 1]\nclass = close", fillcolor="#eca06a"] ;
17 -> 19 ;
20 [label="gini = 0.0\nsamples = 4\nvalue = [4, 0]\nclass = close", fillcolor="#e58139"] ;
19 -> 20 ;
21 [label="gini = 0.0\nsamples = 1\nvalue = [0, 1]\nclass = open", fillcolor="#399de5"] ;
19 -> 21 ;
22 [label="T7 <= 4331.025\ngini = 0.32\nsamples = 5\nvalue = [4, 1]\nclass = close", fillcolor="#eca06a"] ;
16 -> 22 ;
23 [label="gini = 0.0\nsamples = 4\nvalue = [4, 0]\nclass = close", fillcolor="#e58139"] ;
22 -> 23 ;
24 [label="gini = 0.0\nsamples = 1\nvalue = [0, 1]\nclass = open", fillcolor="#399de5"] ;
22 -> 24 ;
25 [label="F4 <= 4259.23\ngini = 0.49\nsamples = 14\nvalue = [8, 6]\nclass = close", fillcolor="#f8e0ce"] ;
15 -> 25 ;
26 [label="gini = 0.0\nsamples = 6\nvalue = [0, 6]\nclass = open", fillcolor="#399de5"] ;
25 -> 26 ;
27 [label="gini = 0.0\nsamples = 8\nvalue = [8, 0]\nclass = close", fillcolor="#e58139"] ;
25 -> 27 ;
28 [label="O1 <= 4054.875\ngini = 0.388\nsamples = 19\nvalue = [5, 14]\nclass = open", fillcolor="#80c0ee"] ;
6 -> 28 ;
29 [label="gini = 0.0\nsamples = 14\nvalue = [0, 14]\nclass = open", fillcolor="#399de5"] ;
28 -> 29 ;
30 [label="gini = 0.0\nsamples = 5\nvalue = [5, 0]\nclass = close", fillcolor="#e58139"] ;
28 -> 30 ;
31 [label="F8 <= 4593.845\ngini = 0.494\nsamples = 97\nvalue = [43, 54]\nclass = open", fillcolor="#d7ebfa"] ;
5 -> 31 ;
32 [label="FC5 <= 4129.745\ngini = 0.331\nsamples = 62\nvalue = [13, 49]\nclass = open", fillcolor="#6eb7ec"] ;
31 -> 32 ;
33 [label="F7 <= 3996.15\ngini = 0.241\nsamples = 57\nvalue = [8, 49]\nclass = open", fillcolor="#59ade9"] ;
32 -> 33 ;
34 [label="FC6 <= 4177.435\ngini = 0.434\nsamples = 22\nvalue = [7, 15]\nclass = open", fillcolor="#95cbf1"] ;
33 -> 34 ;
35 [label="P8 <= 4181.795\ngini = 0.486\nsamples = 12\nvalue = [7, 5]\nclass = close", fillcolor="#f8dbc6"] ;
34 -> 35 ;
36 [label="F3 <= 4232.05\ngini = 0.219\nsamples = 8\nvalue = [7, 1]\nclass = close", fillcolor="#e99355"] ;
35 -> 36 ;
37 [label="gini = 0.0\nsamples = 1\nvalue = [0, 1]\nclass = open", fillcolor="#399de5"] ;
36 -> 37 ;
38 [label="gini = 0.0\nsamples = 7\nvalue = [7, 0]\nclass = close", fillcolor="#e58139"] ;
36 -> 38 ;
39 [label="gini = 0.0\nsamples = 4\nvalue = [0, 4]\nclass = open", fillcolor="#399de5"] ;
35 -> 39 ;
40 [label="gini = 0.0\nsamples = 10\nvalue = [0, 10]\nclass = open", fillcolor="#399de5"] ;
34 -> 40 ;
41 [label="P8 <= 4150.77\ngini = 0.056\nsamples = 35\nvalue = [1, 34]\nclass = open", fillcolor="#3fa0e6"] ;
33 -> 41 ;
42 [label="gini = 0.0\nsamples = 1\nvalue = [1, 0]\nclass = close", fillcolor="#e58139"] ;
41 -> 42 ;
43 [label="gini = 0.0\nsamples = 34\nvalue = [0, 34]\nclass = open", fillcolor="#399de5"] ;
41 -> 43 ;
44 [label="gini = 0.0\nsamples = 5\nvalue = [5, 0]\nclass = close", fillcolor="#e58139"] ;
32 -> 44 ;
45 [label="AF4 <= 4340.515\ngini = 0.245\nsamples = 35\nvalue = [30, 5]\nclass = close", fillcolor="#e9965a"] ;
31 -> 45 ;
46 [label="gini = 0.0\nsamples = 29\nvalue = [29, 0]\nclass = close", fillcolor="#e58139"] ;
45 -> 46 ;
47 [label="AF3 <= 4273.845\ngini = 0.278\nsamples = 6\nvalue = [1, 5]\nclass = open", fillcolor="#61b1ea"] ;
45 -> 47 ;
48 [label="gini = 0.0\nsamples = 1\nvalue = [1, 0]\nclass = close", fillcolor="#e58139"] ;
47 -> 48 ;
49 [label="gini = 0.0\nsamples = 5\nvalue = [0, 5]\nclass = open", fillcolor="#399de5"] ;
47 -> 49 ;
50 [label="F7 <= 3954.615\ngini = 0.458\nsamples = 1240\nvalue = [441, 799]\nclass = open", fillcolor="#a6d3f3"] ;
4 -> 50 ;
51 [label="gini = 0.0\nsamples = 21\nvalue = [21, 0]\nclass = close", fillcolor="#e58139"] ;
50 -> 51 ;
52 [label="P7 <= 4594.615\ngini = 0.452\nsamples = 1219\nvalue = [420, 799]\nclass = open", fillcolor="#a1d1f3"] ;
50 -> 52 ;
53 [label="FC5 <= 4087.695\ngini = 0.084\nsamples = 68\nvalue = [3, 65]\nclass = open", fillcolor="#42a2e6"] ;
52 -> 53 ;
54 [label="gini = 0.0\nsamples = 1\nvalue = [1, 0]\nclass = close", fillcolor="#e58139"] ;
53 -> 54 ;
55 [label="AF3 <= 4256.155\ngini = 0.058\nsamples = 67\nvalue = [2, 65]\nclass = open", fillcolor="#3fa0e6"] ;
53 -> 55 ;
56 [label="FC5 <= 4098.205\ngini = 0.32\nsamples = 10\nvalue = [2, 8]\nclass = open", fillcolor="#6ab6ec"] ;
55 -> 56 ;
57 [label="gini = 0.0\nsamples = 2\nvalue = [2, 0]\nclass = close", fillcolor="#e58139"] ;
56 -> 57 ;
58 [label="gini = 0.0\nsamples = 8\nvalue = [0, 8]\nclass = open", fillcolor="#399de5"] ;
56 -> 58 ;
59 [label="gini = 0.0\nsamples = 57\nvalue = [0, 57]\nclass = open", fillcolor="#399de5"] ;
55 -> 59 ;
60 [label="AF3 <= 4284.36\ngini = 0.462\nsamples = 1151\nvalue = [417, 734]\nclass = open", fillcolor="#a9d5f4"] ;
52 -> 60 ;
61 [label="F8 <= 4601.795\ngini = 0.434\nsamples = 938\nvalue = [299, 639]\nclass = open", fillcolor="#96cbf1"] ;
60 -> 61 ;
62 [label="P8 <= 4208.205\ngini = 0.408\nsamples = 858\nvalue = [245, 613]\nclass = open", fillcolor="#88c4ef"] ;
61 -> 62 ;
63 [label="F8 <= 4536.41\ngini = 0.392\nsamples = 834\nvalue = [223, 611]\nclass = open", fillcolor="#81c1ee"] ;
62 -> 63 ;
64 [label="F7 <= 4002.82\ngini = 0.422\nsamples = 43\nvalue = [30, 13]\nclass = close", fillcolor="#f0b88f"] ;
63 -> 64 ;
65 [label="O1 <= 4047.18\ngini = 0.128\nsamples = 29\nvalue = [27, 2]\nclass = close", fillcolor="#e78a48"] ;
64 -> 65 ;
66 [label="gini = 0.0\nsamples = 1\nvalue = [0, 1]\nclass = open", fillcolor="#399de5"] ;
65 -> 66 ;
67 [label="O2 <= 4615.895\ngini = 0.069\nsamples = 28\nvalue = [27, 1]\nclass = close", fillcolor="#e68640"] ;
65 -> 67 ;
68 [label="gini = 0.0\nsamples = 27\nvalue = [27, 0]\nclass = close", fillcolor="#e58139"] ;
67 -> 68 ;
69 [label="gini = 0.0\nsamples = 1\nvalue = [0, 1]\nclass = open", fillcolor="#399de5"] ;
67 -> 69 ;
70 [label="F8 <= 4532.56\ngini = 0.337\nsamples = 14\nvalue = [3, 11]\nclass = open", fillcolor="#6fb8ec"] ;
64 -> 70 ;
71 [label="AF4 <= 4255.385\ngini = 0.153\nsamples = 12\nvalue = [1, 11]\nclass = open", fillcolor="#4ba6e7"] ;
70 -> 71 ;
72 [label="gini = 0.0\nsamples = 1\nvalue = [1, 0]\nclass = close", fillcolor="#e58139"] ;
71 -> 72 ;
73 [label="gini = 0.0\nsamples = 11\nvalue = [0, 11]\nclass = open", fillcolor="#399de5"] ;
71 -> 73 ;
74 [label="gini = 0.0\nsamples = 2\nvalue = [2, 0]\nclass = close", fillcolor="#e58139"] ;
70 -> 74 ;
75 [label="AF4 <= 4323.845\ngini = 0.369\nsamples = 791\nvalue = [193, 598]\nclass = open", fillcolor="#79bded"] ;
63 -> 75 ;
76 [label="AF3 <= 4277.695\ngini = 0.201\nsamples = 212\nvalue = [24, 188]\nclass = open", fillcolor="#52aae8"] ;
75 -> 76 ;
77 [label="F7 <= 3972.05\ngini = 0.175\nsamples = 207\nvalue = [20, 187]\nclass = open", fillcolor="#4ea7e8"] ;
76 -> 77 ;
78 [label="FC5 <= 4099.745\ngini = 0.444\nsamples = 39\nvalue = [13, 26]\nclass = open", fillcolor="#9ccef2"] ;
77 -> 78 ;
79 [label="T8 <= 4206.155\ngini = 0.1\nsamples = 19\nvalue = [1, 18]\nclass = open", fillcolor="#44a2e6"] ;
78 -> 79 ;
80 [label="gini = 0.0\nsamples = 1\nvalue = [1, 0]\nclass = close", fillcolor="#e58139"] ;
79 -> 80 ;
81 [label="gini = 0.0\nsamples = 18\nvalue = [0, 18]\nclass = open", fillcolor="#399de5"] ;
79 -> 81 ;
82 [label="O1 <= 4074.615\ngini = 0.48\nsamples = 20\nvalue = [12, 8]\nclass = close", fillcolor="#f6d5bd"] ;
78 -> 82 ;
83 [label="F8 <= 4579.485\ngini = 0.26\nsamples = 13\nvalue = [11, 2]\nclass = close", fillcolor="#ea985d"] ;
82 -> 83 ;
84 [label="F7 <= 3971.535\ngini = 0.153\nsamples = 12\nvalue = [11, 1]\nclass = close", fillcolor="#e78c4b"] ;
83 -> 84 ;
85 [label="gini = 0.0\nsamples = 10\nvalue = [10, 0]\nclass = close", fillcolor="#e58139"] ;
84 -> 85 ;
86 [label="FC6 <= 4166.155\ngini = 0.5\nsamples = 2\nvalue = [1, 1]\nclass = close", fillcolor="#ffffff"] ;
84 -> 86 ;
87 [label="gini = 0.0\nsamples = 1\nvalue = [0, 1]\nclass = open", fillcolor="#399de5"] ;
86 -> 87 ;
88 [label="gini = 0.0\nsamples = 1\nvalue = [1, 0]\nclass = close", fillcolor="#e58139"] ;
86 -> 88 ;
89 [label="gini = 0.0\nsamples = 1\nvalue = [0, 1]\nclass = open", fillcolor="#399de5"] ;
83 -> 89 ;
90 [label="T8 <= 4217.435\ngini = 0.245\nsamples = 7\nvalue = [1, 6]\nclass = open", fillcolor="#5aade9"] ;
82 -> 90 ;
91 [label="gini = 0.0\nsamples = 6\nvalue = [0, 6]\nclass = open", fillcolor="#399de5"] ;
90 -> 91 ;
92 [label="gini = 0.0\nsamples = 1\nvalue = [1, 0]\nclass = close", fillcolor="#e58139"] ;
90 -> 92 ;
93 [label="F8 <= 4544.615\ngini = 0.08\nsamples = 168\nvalue = [7, 161]\nclass = open", fillcolor="#42a1e6"] ;
77 -> 93 ;
94 [label="O1 <= 4060.255\ngini = 0.457\nsamples = 17\nvalue = [6, 11]\nclass = open", fillcolor="#a5d2f3"] ;
93 -> 94 ;
95 [label="gini = 0.0\nsamples = 7\nvalue = [0, 7]\nclass = open", fillcolor="#399de5"] ;
94 -> 95 ;
96 [label="F8 <= 4540.26\ngini = 0.48\nsamples = 10\nvalue = [6, 4]\nclass = close", fillcolor="#f6d5bd"] ;
94 -> 96 ;
97 [label="T8 <= 4208.46\ngini = 0.444\nsamples = 6\nvalue = [2, 4]\nclass = open", fillcolor="#9ccef2"] ;
96 -> 97 ;
98 [label="AF4 <= 4274.615\ngini = 0.444\nsamples = 3\nvalue = [2, 1]\nclass = close", fillcolor="#f2c09c"] ;
97 -> 98 ;
99 [label="gini = 0.0\nsamples = 1\nvalue = [0, 1]\nclass = open", fillcolor="#399de5"] ;
98 -> 99 ;
100 [label="gini = 0.0\nsamples = 2\nvalue = [2, 0]\nclass = close", fillcolor="#e58139"] ;
98 -> 100 ;
101 [label="gini = 0.0\nsamples = 3\nvalue = [0, 3]\nclass = open", fillcolor="#399de5"] ;
97 -> 101 ;
102 [label="gini = 0.0\nsamples = 4\nvalue = [4, 0]\nclass = close", fillcolor="#e58139"] ;
96 -> 102 ;
103 [label="O1 <= 4040.255\ngini = 0.013\nsamples = 151\nvalue = [1, 150]\nclass = open", fillcolor="#3a9ee5"] ;
93 -> 103 ;
104 [label="gini = 0.0\nsamples = 1\nvalue = [1, 0]\nclass = close", fillcolor="#e58139"] ;
103 -> 104 ;
105 [label="gini = 0.0\nsamples = 150\nvalue = [0, 150]\nclass = open", fillcolor="#399de5"] ;
103 -> 105 ;
106 [label="P8 <= 4201.025\ngini = 0.32\nsamples = 5\nvalue = [4, 1]\nclass = close", fillcolor="#eca06a"] ;
76 -> 106 ;
107 [label="gini = 0.0\nsamples = 4\nvalue = [4, 0]\nclass = close", fillcolor="#e58139"] ;
106 -> 107 ;
108 [label="gini = 0.0\nsamples = 1\nvalue = [0, 1]\nclass = open", fillcolor="#399de5"] ;
106 -> 108 ;
109 [label="F8 <= 4578.715\ngini = 0.413\nsamples = 579\nvalue = [169, 410]\nclass = open", fillcolor="#8bc5f0"] ;
75 -> 109 ;
110 [label="AF3 <= 4276.155\ngini = 0.496\nsamples = 125\nvalue = [57, 68]\nclass = open", fillcolor="#dfeffb"] ;
109 -> 110 ;
111 [label="T7 <= 4325.385\ngini = 0.414\nsamples = 89\nvalue = [26, 63]\nclass = open", fillcolor="#8bc5f0"] ;
110 -> 111 ;
112 [label="F7 <= 3968.465\ngini = 0.49\nsamples = 28\nvalue = [16, 12]\nclass = close", fillcolor="#f8e0ce"] ;
111 -> 112 ;
113 [label="P8 <= 4199.74\ngini = 0.278\nsamples = 12\nvalue = [2, 10]\nclass = open", fillcolor="#61b1ea"] ;
112 -> 113 ;
114 [label="gini = 0.0\nsamples = 10\nvalue = [0, 10]\nclass = open", fillcolor="#399de5"] ;
113 -> 114 ;
115 [label="gini = 0.0\nsamples = 2\nvalue = [2, 0]\nclass = close", fillcolor="#e58139"] ;
113 -> 115 ;
116 [label="F8 <= 4577.435\ngini = 0.219\nsamples = 16\nvalue = [14, 2]\nclass = close", fillcolor="#e99355"] ;
112 -> 116 ;
117 [label="F7 <= 3998.46\ngini = 0.124\nsamples = 15\nvalue = [14, 1]\nclass = close", fillcolor="#e78a47"] ;
116 -> 117 ;
118 [label="gini = 0.0\nsamples = 14\nvalue = [14, 0]\nclass = close", fillcolor="#e58139"] ;
117 -> 118 ;
119 [label="gini = 0.0\nsamples = 1\nvalue = [0, 1]\nclass = open", fillcolor="#399de5"] ;
117 -> 119 ;
120 [label="gini = 0.0\nsamples = 1\nvalue = [0, 1]\nclass = open", fillcolor="#399de5"] ;
116 -> 120 ;
121 [label="AF4 <= 4339.74\ngini = 0.274\nsamples = 61\nvalue = [10, 51]\nclass = open", fillcolor="#60b0ea"] ;
111 -> 121 ;
122 [label="F3 <= 4258.205\ngini = 0.191\nsamples = 56\nvalue = [6, 50]\nclass = open", fillcolor="#51a9e8"] ;
121 -> 122 ;
123 [label="F4 <= 4255.385\ngini = 0.165\nsamples = 55\nvalue = [5, 50]\nclass = open", fillcolor="#4da7e8"] ;
122 -> 123 ;
124 [label="O1 <= 4053.335\ngini = 0.401\nsamples = 18\nvalue = [5, 13]\nclass = open", fillcolor="#85c3ef"] ;
123 -> 124 ;
125 [label="gini = 0.0\nsamples = 10\nvalue = [0, 10]\nclass = open", fillcolor="#399de5"] ;
124 -> 125 ;
126 [label="P7 <= 4608.715\ngini = 0.469\nsamples = 8\nvalue = [5, 3]\nclass = close", fillcolor="#f5cdb0"] ;
124 -> 126 ;
127 [label="gini = 0.0\nsamples = 3\nvalue = [0, 3]\nclass = open", fillcolor="#399de5"] ;
126 -> 127 ;
128 [label="gini = 0.0\nsamples = 5\nvalue = [5, 0]\nclass = close", fillcolor="#e58139"] ;
126 -> 128 ;
129 [label="gini = 0.0\nsamples = 37\nvalue = [0, 37]\nclass = open", fillcolor="#399de5"] ;
123 -> 129 ;
130 [label="gini = 0.0\nsamples = 1\nvalue = [1, 0]\nclass = close", fillcolor="#e58139"] ;
122 -> 130 ;
131 [label="P7 <= 4616.155\ngini = 0.32\nsamples = 5\nvalue = [4, 1]\nclass = close", fillcolor="#eca06a"] ;
121 -> 131 ;
132 [label="gini = 0.0\nsamples = 4\nvalue = [4, 0]\nclass = close", fillcolor="#e58139"] ;
131 -> 132 ;
133 [label="gini = 0.0\nsamples = 1\nvalue = [0, 1]\nclass = open", fillcolor="#399de5"] ;
131 -> 133 ;
134 [label="AF3 <= 4277.95\ngini = 0.239\nsamples = 36\nvalue = [31, 5]\nclass = close", fillcolor="#e99559"] ;
110 -> 134 ;
135 [label="F4 <= 4258.975\ngini = 0.459\nsamples = 14\nvalue = [9, 5]\nclass = close", fillcolor="#f3c7a7"] ;
134 -> 135 ;
136 [label="F4 <= 4249.23\ngini = 0.219\nsamples = 8\nvalue = [7, 1]\nclass = close", fillcolor="#e99355"] ;
135 -> 136 ;
137 [label="gini = 0.0\nsamples = 1\nvalue = [0, 1]\nclass = open", fillcolor="#399de5"] ;
136 -> 137 ;
138 [label="gini = 0.0\nsamples = 7\nvalue = [7, 0]\nclass = close", fillcolor="#e58139"] ;
136 -> 138 ;
139 [label="F4 <= 4263.59\ngini = 0.444\nsamples = 6\nvalue = [2, 4]\nclass = open", fillcolor="#9ccef2"] ;
135 -> 139 ;
140 [label="gini = 0.0\nsamples = 4\nvalue = [0, 4]\nclass = open", fillcolor="#399de5"] ;
139 -> 140 ;
141 [label="gini = 0.0\nsamples = 2\nvalue = [2, 0]\nclass = close", fillcolor="#e58139"] ;
139 -> 141 ;
142 [label="gini = 0.0\nsamples = 22\nvalue = [22, 0]\nclass = close", fillcolor="#e58139"] ;
134 -> 142 ;
143 [label="F3 <= 4244.875\ngini = 0.372\nsamples = 454\nvalue = [112, 342]\nclass = open", fillcolor="#7abdee"] ;
109 -> 143 ;
144 [label="F7 <= 4005.645\ngini = 0.488\nsamples = 140\nvalue = [59, 81]\nclass = open", fillcolor="#c9e4f8"] ;
143 -> 144 ;
145 [label="O1 <= 4070.77\ngini = 0.489\nsamples = 101\nvalue = [58, 43]\nclass = close", fillcolor="#f8decc"] ;
144 -> 145 ;
146 [label="AF4 <= 4338.715\ngini = 0.5\nsamples = 80\nvalue = [39, 41]\nclass = open", fillcolor="#f5fafe"] ;
145 -> 146 ;
147 [label="O2 <= 4623.335\ngini = 0.482\nsamples = 52\nvalue = [31, 21]\nclass = close", fillcolor="#f7d6bf"] ;
146 -> 147 ;
148 [label="F4 <= 4252.305\ngini = 0.457\nsamples = 48\nvalue = [31, 17]\nclass = close", fillcolor="#f3c6a6"] ;
147 -> 148 ;
149 [label="F3 <= 4234.1\ngini = 0.42\nsamples = 10\nvalue = [3, 7]\nclass = open", fillcolor="#8ec7f0"] ;
148 -> 149 ;
150 [label="gini = 0.0\nsamples = 3\nvalue = [3, 0]\nclass = close", fillcolor="#e58139"] ;
149 -> 150 ;
151 [label="gini = 0.0\nsamples = 7\nvalue = [0, 7]\nclass = open", fillcolor="#399de5"] ;
149 -> 151 ;
152 [label="F7 <= 3974.615\ngini = 0.388\nsamples = 38\nvalue = [28, 10]\nclass = close", fillcolor="#eeae80"] ;
148 -> 152 ;
153 [label="gini = 0.0\nsamples = 12\nvalue = [12, 0]\nclass = close", fillcolor="#e58139"] ;
152 -> 153 ;
154 [label="O1 <= 4045.645\ngini = 0.473\nsamples = 26\nvalue = [16, 10]\nclass = close", fillcolor="#f5d0b5"] ;
152 -> 154 ;
155 [label="gini = 0.0\nsamples = 10\nvalue = [10, 0]\nclass = close", fillcolor="#e58139"] ;
154 -> 155 ;
156 [label="P8 <= 4185.13\ngini = 0.469\nsamples = 16\nvalue = [6, 10]\nclass = open", fillcolor="#b0d8f5"] ;
154 -> 156 ;
157 [label="gini = 0.0\nsamples = 5\nvalue = [0, 5]\nclass = open", fillcolor="#399de5"] ;
156 -> 157 ;
158 [label="O1 <= 4065.64\ngini = 0.496\nsamples = 11\nvalue = [6, 5]\nclass = close", fillcolor="#fbeade"] ;
156 -> 158 ;
159 [label="AF3 <= 4278.975\ngini = 0.375\nsamples = 8\nvalue = [6, 2]\nclass = close", fillcolor="#eeab7b"] ;
158 -> 159 ;
160 [label="gini = 0.0\nsamples = 6\nvalue = [6, 0]\nclass = close", fillcolor="#e58139"] ;
159 -> 160 ;
161 [label="gini = 0.0\nsamples = 2\nvalue = [0, 2]\nclass = open", fillcolor="#399de5"] ;
159 -> 161 ;
162 [label="gini = 0.0\nsamples = 3\nvalue = [0, 3]\nclass = open", fillcolor="#399de5"] ;
158 -> 162 ;
163 [label="gini = 0.0\nsamples = 4\nvalue = [0, 4]\nclass = open", fillcolor="#399de5"] ;
147 -> 163 ;
164 [label="F4 <= 4261.795\ngini = 0.408\nsamples = 28\nvalue = [8, 20]\nclass = open", fillcolor="#88c4ef"] ;
146 -> 164 ;
165 [label="O2 <= 4615.64\ngini = 0.105\nsamples = 18\nvalue = [1, 17]\nclass = open", fillcolor="#45a3e7"] ;
164 -> 165 ;
166 [label="gini = 0.0\nsamples = 17\nvalue = [0, 17]\nclass = open", fillcolor="#399de5"] ;
165 -> 166 ;
167 [label="gini = 0.0\nsamples = 1\nvalue = [1, 0]\nclass = close", fillcolor="#e58139"] ;
165 -> 167 ;
168 [label="F7 <= 3973.075\ngini = 0.42\nsamples = 10\nvalue = [7, 3]\nclass = close", fillcolor="#f0b78e"] ;
164 -> 168 ;
169 [label="FC5 <= 4093.59\ngini = 0.375\nsamples = 4\nvalue = [1, 3]\nclass = open", fillcolor="#7bbeee"] ;
168 -> 169 ;
170 [label="gini = 0.0\nsamples = 1\nvalue = [1, 0]\nclass = close", fillcolor="#e58139"] ;
169 -> 170 ;
171 [label="gini = 0.0\nsamples = 3\nvalue = [0, 3]\nclass = open", fillcolor="#399de5"] ;
169 -> 171 ;
172 [label="gini = 0.0\nsamples = 6\nvalue = [6, 0]\nclass = close", fillcolor="#e58139"] ;
168 -> 172 ;
173 [label="T7 <= 4323.075\ngini = 0.172\nsamples = 21\nvalue = [19, 2]\nclass = close", fillcolor="#e88e4e"] ;
145 -> 173 ;
174 [label="T8 <= 4223.335\ngini = 0.444\nsamples = 3\nvalue = [1, 2]\nclass = open", fillcolor="#9ccef2"] ;
173 -> 174 ;
175 [label="gini = 0.0\nsamples = 2\nvalue = [0, 2]\nclass = open", fillcolor="#399de5"] ;
174 -> 175 ;
176 [label="gini = 0.0\nsamples = 1\nvalue = [1, 0]\nclass = close", fillcolor="#e58139"] ;
174 -> 176 ;
177 [label="gini = 0.0\nsamples = 18\nvalue = [18, 0]\nclass = close", fillcolor="#e58139"] ;
173 -> 177 ;
178 [label="AF4 <= 4346.15\ngini = 0.05\nsamples = 39\nvalue = [1, 38]\nclass = open", fillcolor="#3ea0e6"] ;
144 -> 178 ;
179 [label="gini = 0.0\nsamples = 38\nvalue = [0, 38]\nclass = open", fillcolor="#399de5"] ;
178 -> 179 ;
180 [label="gini = 0.0\nsamples = 1\nvalue = [1, 0]\nclass = close", fillcolor="#e58139"] ;
178 -> 180 ;
181 [label="T7 <= 4323.335\ngini = 0.281\nsamples = 314\nvalue = [53, 261]\nclass = open", fillcolor="#61b1ea"] ;
143 -> 181 ;
182 [label="T8 <= 4216.155\ngini = 0.493\nsamples = 25\nvalue = [11, 14]\nclass = open", fillcolor="#d5eaf9"] ;
181 -> 182 ;
183 [label="F7 <= 4002.31\ngini = 0.298\nsamples = 11\nvalue = [9, 2]\nclass = close", fillcolor="#eb9d65"] ;
182 -> 183 ;
184 [label="gini = 0.0\nsamples = 9\nvalue = [9, 0]\nclass = close", fillcolor="#e58139"] ;
183 -> 184 ;
185 [label="gini = 0.0\nsamples = 2\nvalue = [0, 2]\nclass = open", fillcolor="#399de5"] ;
183 -> 185 ;
186 [label="AF3 <= 4277.18\ngini = 0.245\nsamples = 14\nvalue = [2, 12]\nclass = open", fillcolor="#5aade9"] ;
182 -> 186 ;
187 [label="gini = 0.0\nsamples = 12\nvalue = [0, 12]\nclass = open", fillcolor="#399de5"] ;
186 -> 187 ;
188 [label="gini = 0.0\nsamples = 2\nvalue = [2, 0]\nclass = close", fillcolor="#e58139"] ;
186 -> 188 ;
189 [label="F7 <= 3990.515\ngini = 0.248\nsamples = 289\nvalue = [42, 247]\nclass = open", fillcolor="#5baee9"] ;
181 -> 189 ;
190 [label="P8 <= 4206.925\ngini = 0.146\nsamples = 177\nvalue = [14, 163]\nclass = open", fillcolor="#4aa5e7"] ;
189 -> 190 ;
191 [label="O1 <= 4050.515\ngini = 0.137\nsamples = 176\nvalue = [13, 163]\nclass = open", fillcolor="#49a5e7"] ;
190 -> 191 ;
192 [label="F8 <= 4600.255\ngini = 0.038\nsamples = 102\nvalue = [2, 100]\nclass = open", fillcolor="#3d9fe6"] ;
191 -> 192 ;
193 [label="FC5 <= 4094.87\ngini = 0.02\nsamples = 100\nvalue = [1, 99]\nclass = open", fillcolor="#3b9ee5"] ;
192 -> 193 ;
194 [label="F7 <= 3988.465\ngini = 0.153\nsamples = 12\nvalue = [1, 11]\nclass = open", fillcolor="#4ba6e7"] ;
193 -> 194 ;
195 [label="gini = 0.0\nsamples = 11\nvalue = [0, 11]\nclass = open", fillcolor="#399de5"] ;
194 -> 195 ;
196 [label="gini = 0.0\nsamples = 1\nvalue = [1, 0]\nclass = close", fillcolor="#e58139"] ;
194 -> 196 ;
197 [label="gini = 0.0\nsamples = 88\nvalue = [0, 88]\nclass = open", fillcolor="#399de5"] ;
193 -> 197 ;
198 [label="P8 <= 4195.64\ngini = 0.5\nsamples = 2\nvalue = [1, 1]\nclass = close", fillcolor="#ffffff"] ;
192 -> 198 ;
199 [label="gini = 0.0\nsamples = 1\nvalue = [1, 0]\nclass = close", fillcolor="#e58139"] ;
198 -> 199 ;
200 [label="gini = 0.0\nsamples = 1\nvalue = [0, 1]\nclass = open", fillcolor="#399de5"] ;
198 -> 200 ;
201 [label="O2 <= 4607.95\ngini = 0.253\nsamples = 74\nvalue = [11, 63]\nclass = open", fillcolor="#5caeea"] ;
191 -> 201 ;
202 [label="F4 <= 4262.565\ngini = 0.455\nsamples = 20\nvalue = [7, 13]\nclass = open", fillcolor="#a4d2f3"] ;
201 -> 202 ;
203 [label="F8 <= 4580.0\ngini = 0.142\nsamples = 13\nvalue = [1, 12]\nclass = open", fillcolor="#49a5e7"] ;
202 -> 203 ;
204 [label="gini = 0.0\nsamples = 1\nvalue = [1, 0]\nclass = close", fillcolor="#e58139"] ;
203 -> 204 ;
205 [label="gini = 0.0\nsamples = 12\nvalue = [0, 12]\nclass = open", fillcolor="#399de5"] ;
203 -> 205 ;
206 [label="T7 <= 4342.82\ngini = 0.245\nsamples = 7\nvalue = [6, 1]\nclass = close", fillcolor="#e9965a"] ;
202 -> 206 ;
207 [label="gini = 0.0\nsamples = 6\nvalue = [6, 0]\nclass = close", fillcolor="#e58139"] ;
206 -> 207 ;
208 [label="gini = 0.0\nsamples = 1\nvalue = [0, 1]\nclass = open", fillcolor="#399de5"] ;
206 -> 208 ;
209 [label="F8 <= 4583.335\ngini = 0.137\nsamples = 54\nvalue = [4, 50]\nclass = open", fillcolor="#49a5e7"] ;
201 -> 209 ;
210 [label="T8 <= 4217.18\ngini = 0.469\nsamples = 8\nvalue = [3, 5]\nclass = open", fillcolor="#b0d8f5"] ;
209 -> 210 ;
211 [label="gini = 0.0\nsamples = 4\nvalue = [0, 4]\nclass = open", fillcolor="#399de5"] ;
210 -> 211 ;
212 [label="AF3 <= 4277.95\ngini = 0.375\nsamples = 4\nvalue = [3, 1]\nclass = close", fillcolor="#eeab7b"] ;
210 -> 212 ;
213 [label="gini = 0.0\nsamples = 3\nvalue = [3, 0]\nclass = close", fillcolor="#e58139"] ;
212 -> 213 ;
214 [label="gini = 0.0\nsamples = 1\nvalue = [0, 1]\nclass = open", fillcolor="#399de5"] ;
212 -> 214 ;
215 [label="FC5 <= 4092.305\ngini = 0.043\nsamples = 46\nvalue = [1, 45]\nclass = open", fillcolor="#3d9fe6"] ;
209 -> 215 ;
216 [label="P7 <= 4613.845\ngini = 0.444\nsamples = 3\nvalue = [1, 2]\nclass = open", fillcolor="#9ccef2"] ;
215 -> 216 ;
217 [label="gini = 0.0\nsamples = 1\nvalue = [1, 0]\nclass = close", fillcolor="#e58139"] ;
216 -> 217 ;
218 [label="gini = 0.0\nsamples = 2\nvalue = [0, 2]\nclass = open", fillcolor="#399de5"] ;
216 -> 218 ;
219 [label="gini = 0.0\nsamples = 43\nvalue = [0, 43]\nclass = open", fillcolor="#399de5"] ;
215 -> 219 ;
220 [label="gini = 0.0\nsamples = 1\nvalue = [1, 0]\nclass = close", fillcolor="#e58139"] ;
190 -> 220 ;
221 [label="O1 <= 4053.59\ngini = 0.375\nsamples = 112\nvalue = [28, 84]\nclass = open", fillcolor="#7bbeee"] ;
189 -> 221 ;
222 [label="P8 <= 4190.0\ngini = 0.491\nsamples = 46\nvalue = [20, 26]\nclass = open", fillcolor="#d1e8f9"] ;
221 -> 222 ;
223 [label="FC6 <= 4184.36\ngini = 0.397\nsamples = 22\nvalue = [16, 6]\nclass = close", fillcolor="#efb083"] ;
222 -> 223 ;
224 [label="FC5 <= 4109.485\ngini = 0.48\nsamples = 10\nvalue = [4, 6]\nclass = open", fillcolor="#bddef6"] ;
223 -> 224 ;
225 [label="gini = 0.0\nsamples = 5\nvalue = [0, 5]\nclass = open", fillcolor="#399de5"] ;
224 -> 225 ;
226 [label="FC5 <= 4122.305\ngini = 0.32\nsamples = 5\nvalue = [4, 1]\nclass = close", fillcolor="#eca06a"] ;
224 -> 226 ;
227 [label="gini = 0.0\nsamples = 4\nvalue = [4, 0]\nclass = close", fillcolor="#e58139"] ;
226 -> 227 ;
228 [label="gini = 0.0\nsamples = 1\nvalue = [0, 1]\nclass = open", fillcolor="#399de5"] ;
226 -> 228 ;
229 [label="gini = 0.0\nsamples = 12\nvalue = [12, 0]\nclass = close", fillcolor="#e58139"] ;
223 -> 229 ;
230 [label="AF4 <= 4332.055\ngini = 0.278\nsamples = 24\nvalue = [4, 20]\nclass = open", fillcolor="#61b1ea"] ;
222 -> 230 ;
231 [label="gini = 0.0\nsamples = 2\nvalue = [2, 0]\nclass = close", fillcolor="#e58139"] ;
230 -> 231 ;
232 [label="AF3 <= 4272.82\ngini = 0.165\nsamples = 22\nvalue = [2, 20]\nclass = open", fillcolor="#4da7e8"] ;
230 -> 232 ;
233 [label="gini = 0.0\nsamples = 1\nvalue = [1, 0]\nclass = close", fillcolor="#e58139"] ;
232 -> 233 ;
234 [label="T7 <= 4327.18\ngini = 0.091\nsamples = 21\nvalue = [1, 20]\nclass = open", fillcolor="#43a2e6"] ;
232 -> 234 ;
235 [label="gini = 0.0\nsamples = 1\nvalue = [1, 0]\nclass = close", fillcolor="#e58139"] ;
234 -> 235 ;
236 [label="gini = 0.0\nsamples = 20\nvalue = [0, 20]\nclass = open", fillcolor="#399de5"] ;
234 -> 236 ;
237 [label="AF4 <= 4348.715\ngini = 0.213\nsamples = 66\nvalue = [8, 58]\nclass = open", fillcolor="#54abe9"] ;
221 -> 237 ;
238 [label="FC6 <= 4168.205\ngini = 0.123\nsamples = 61\nvalue = [4, 57]\nclass = open", fillcolor="#47a4e7"] ;
237 -> 238 ;
239 [label="gini = 0.0\nsamples = 2\nvalue = [2, 0]\nclass = close", fillcolor="#e58139"] ;
238 -> 239 ;
240 [label="T8 <= 4231.54\ngini = 0.065\nsamples = 59\nvalue = [2, 57]\nclass = open", fillcolor="#40a0e6"] ;
238 -> 240 ;
241 [label="T8 <= 4226.925\ngini = 0.034\nsamples = 58\nvalue = [1, 57]\nclass = open", fillcolor="#3c9fe5"] ;
240 -> 241 ;
242 [label="gini = 0.0\nsamples = 55\nvalue = [0, 55]\nclass = open", fillcolor="#399de5"] ;
241 -> 242 ;
243 [label="F7 <= 4006.92\ngini = 0.444\nsamples = 3\nvalue = [1, 2]\nclass = open", fillcolor="#9ccef2"] ;
241 -> 243 ;
244 [label="gini = 0.0\nsamples = 1\nvalue = [1, 0]\nclass = close", fillcolor="#e58139"] ;
243 -> 244 ;
245 [label="gini = 0.0\nsamples = 2\nvalue = [0, 2]\nclass = open", fillcolor="#399de5"] ;
243 -> 245 ;
246 [label="gini = 0.0\nsamples = 1\nvalue = [1, 0]\nclass = close", fillcolor="#e58139"] ;
240 -> 246 ;
247 [label="P7 <= 4616.665\ngini = 0.32\nsamples = 5\nvalue = [4, 1]\nclass = close", fillcolor="#eca06a"] ;
237 -> 247 ;
248 [label="gini = 0.0\nsamples = 4\nvalue = [4, 0]\nclass = close", fillcolor="#e58139"] ;
247 -> 248 ;
249 [label="gini = 0.0\nsamples = 1\nvalue = [0, 1]\nclass = open", fillcolor="#399de5"] ;
247 -> 249 ;
250 [label="F4 <= 4251.54\ngini = 0.153\nsamples = 24\nvalue = [22, 2]\nclass = close", fillcolor="#e78c4b"] ;
62 -> 250 ;
251 [label="gini = 0.0\nsamples = 1\nvalue = [0, 1]\nclass = open", fillcolor="#399de5"] ;
250 -> 251 ;
252 [label="P7 <= 4616.665\ngini = 0.083\nsamples = 23\nvalue = [22, 1]\nclass = close", fillcolor="#e68742"] ;
250 -> 252 ;
253 [label="gini = 0.0\nsamples = 22\nvalue = [22, 0]\nclass = close", fillcolor="#e58139"] ;
252 -> 253 ;
254 [label="gini = 0.0\nsamples = 1\nvalue = [0, 1]\nclass = open", fillcolor="#399de5"] ;
252 -> 254 ;
255 [label="FC6 <= 4195.64\ngini = 0.439\nsamples = 80\nvalue = [54, 26]\nclass = close", fillcolor="#f2be98"] ;
61 -> 255 ;
256 [label="P8 <= 4201.025\ngini = 0.222\nsamples = 55\nvalue = [48, 7]\nclass = close", fillcolor="#e99356"] ;
255 -> 256 ;
257 [label="T8 <= 4236.155\ngini = 0.171\nsamples = 53\nvalue = [48, 5]\nclass = close", fillcolor="#e88e4e"] ;
256 -> 257 ;
258 [label="FC6 <= 4178.72\ngini = 0.142\nsamples = 52\nvalue = [48, 4]\nclass = close", fillcolor="#e78c49"] ;
257 -> 258 ;
259 [label="gini = 0.0\nsamples = 1\nvalue = [0, 1]\nclass = open", fillcolor="#399de5"] ;
258 -> 259 ;
260 [label="T7 <= 4318.715\ngini = 0.111\nsamples = 51\nvalue = [48, 3]\nclass = close", fillcolor="#e78945"] ;
258 -> 260 ;
261 [label="gini = 0.0\nsamples = 1\nvalue = [0, 1]\nclass = open", fillcolor="#399de5"] ;
260 -> 261 ;
262 [label="P8 <= 4196.155\ngini = 0.077\nsamples = 50\nvalue = [48, 2]\nclass = close", fillcolor="#e68641"] ;
260 -> 262 ;
263 [label="gini = 0.0\nsamples = 40\nvalue = [40, 0]\nclass = close", fillcolor="#e58139"] ;
262 -> 263 ;
264 [label="AF3 <= 4280.765\ngini = 0.32\nsamples = 10\nvalue = [8, 2]\nclass = close", fillcolor="#eca06a"] ;
262 -> 264 ;
265 [label="FC6 <= 4193.845\ngini = 0.198\nsamples = 9\nvalue = [8, 1]\nclass = close", fillcolor="#e89152"] ;
264 -> 265 ;
266 [label="gini = 0.0\nsamples = 8\nvalue = [8, 0]\nclass = close", fillcolor="#e58139"] ;
265 -> 266 ;
267 [label="gini = 0.0\nsamples = 1\nvalue = [0, 1]\nclass = open", fillcolor="#399de5"] ;
265 -> 267 ;
268 [label="gini = 0.0\nsamples = 1\nvalue = [0, 1]\nclass = open", fillcolor="#399de5"] ;
264 -> 268 ;
269 [label="gini = 0.0\nsamples = 1\nvalue = [0, 1]\nclass = open", fillcolor="#399de5"] ;
257 -> 269 ;
270 [label="gini = 0.0\nsamples = 2\nvalue = [0, 2]\nclass = open", fillcolor="#399de5"] ;
256 -> 270 ;
271 [label="F8 <= 4613.08\ngini = 0.365\nsamples = 25\nvalue = [6, 19]\nclass = open", fillcolor="#78bced"] ;
255 -> 271 ;
272 [label="O1 <= 4037.695\ngini = 0.172\nsamples = 21\nvalue = [2, 19]\nclass = open", fillcolor="#4ea7e8"] ;
271 -> 272 ;
273 [label="gini = 0.0\nsamples = 1\nvalue = [1, 0]\nclass = close", fillcolor="#e58139"] ;
272 -> 273 ;
274 [label="F7 <= 4014.875\ngini = 0.095\nsamples = 20\nvalue = [1, 19]\nclass = open", fillcolor="#43a2e6"] ;
272 -> 274 ;
275 [label="gini = 0.0\nsamples = 19\nvalue = [0, 19]\nclass = open", fillcolor="#399de5"] ;
274 -> 275 ;
276 [label="gini = 0.0\nsamples = 1\nvalue = [1, 0]\nclass = close", fillcolor="#e58139"] ;
274 -> 276 ;
277 [label="gini = 0.0\nsamples = 4\nvalue = [4, 0]\nclass = close", fillcolor="#e58139"] ;
271 -> 277 ;
278 [label="F8 <= 4587.435\ngini = 0.494\nsamples = 213\nvalue = [118, 95]\nclass = close", fillcolor="#fae6d8"] ;
60 -> 278 ;
279 [label="F3 <= 4266.41\ngini = 0.259\nsamples = 72\nvalue = [61, 11]\nclass = close", fillcolor="#ea985d"] ;
278 -> 279 ;
280 [label="F7 <= 3986.665\ngini = 0.205\nsamples = 69\nvalue = [61, 8]\nclass = close", fillcolor="#e89253"] ;
279 -> 280 ;
281 [label="AF4 <= 4349.745\ngini = 0.5\nsamples = 8\nvalue = [4, 4]\nclass = close", fillcolor="#ffffff"] ;
280 -> 281 ;
282 [label="gini = 0.0\nsamples = 4\nvalue = [0, 4]\nclass = open", fillcolor="#399de5"] ;
281 -> 282 ;
283 [label="gini = 0.0\nsamples = 4\nvalue = [4, 0]\nclass = close", fillcolor="#e58139"] ;
281 -> 283 ;
284 [label="O1 <= 4086.41\ngini = 0.123\nsamples = 61\nvalue = [57, 4]\nclass = close", fillcolor="#e78a47"] ;
280 -> 284 ;
285 [label="AF4 <= 4334.36\ngini = 0.065\nsamples = 59\nvalue = [57, 2]\nclass = close", fillcolor="#e68540"] ;
284 -> 285 ;
286 [label="O2 <= 4604.615\ngini = 0.5\nsamples = 2\nvalue = [1, 1]\nclass = close", fillcolor="#ffffff"] ;
285 -> 286 ;
287 [label="gini = 0.0\nsamples = 1\nvalue = [0, 1]\nclass = open", fillcolor="#399de5"] ;
286 -> 287 ;
288 [label="gini = 0.0\nsamples = 1\nvalue = [1, 0]\nclass = close", fillcolor="#e58139"] ;
286 -> 288 ;
289 [label="T8 <= 4230.515\ngini = 0.034\nsamples = 57\nvalue = [56, 1]\nclass = close", fillcolor="#e5833d"] ;
285 -> 289 ;
290 [label="gini = 0.0\nsamples = 54\nvalue = [54, 0]\nclass = close", fillcolor="#e58139"] ;
289 -> 290 ;
291 [label="T7 <= 4331.795\ngini = 0.444\nsamples = 3\nvalue = [2, 1]\nclass = close", fillcolor="#f2c09c"] ;
289 -> 291 ;
292 [label="gini = 0.0\nsamples = 1\nvalue = [0, 1]\nclass = open", fillcolor="#399de5"] ;
291 -> 292 ;
293 [label="gini = 0.0\nsamples = 2\nvalue = [2, 0]\nclass = close", fillcolor="#e58139"] ;
291 -> 293 ;
294 [label="gini = 0.0\nsamples = 2\nvalue = [0, 2]\nclass = open", fillcolor="#399de5"] ;
284 -> 294 ;
295 [label="gini = 0.0\nsamples = 3\nvalue = [0, 3]\nclass = open", fillcolor="#399de5"] ;
279 -> 295 ;
296 [label="F7 <= 3996.155\ngini = 0.482\nsamples = 141\nvalue = [57, 84]\nclass = open", fillcolor="#bfe0f7"] ;
278 -> 296 ;
297 [label="AF3 <= 4294.105\ngini = 0.331\nsamples = 62\nvalue = [13, 49]\nclass = open", fillcolor="#6eb7ec"] ;
296 -> 297 ;
298 [label="P8 <= 4176.665\ngini = 0.226\nsamples = 54\nvalue = [7, 47]\nclass = open", fillcolor="#56ace9"] ;
297 -> 298 ;
299 [label="gini = 0.0\nsamples = 2\nvalue = [2, 0]\nclass = close", fillcolor="#e58139"] ;
298 -> 299 ;
300 [label="F8 <= 4592.565\ngini = 0.174\nsamples = 52\nvalue = [5, 47]\nclass = open", fillcolor="#4ea7e8"] ;
298 -> 300 ;
301 [label="O2 <= 4609.23\ngini = 0.388\nsamples = 19\nvalue = [5, 14]\nclass = open", fillcolor="#80c0ee"] ;
300 -> 301 ;
302 [label="F7 <= 3965.895\ngini = 0.133\nsamples = 14\nvalue = [1, 13]\nclass = open", fillcolor="#48a5e7"] ;
301 -> 302 ;
303 [label="gini = 0.0\nsamples = 1\nvalue = [1, 0]\nclass = close", fillcolor="#e58139"] ;
302 -> 303 ;
304 [label="gini = 0.0\nsamples = 13\nvalue = [0, 13]\nclass = open", fillcolor="#399de5"] ;
302 -> 304 ;
305 [label="F3 <= 4263.59\ngini = 0.32\nsamples = 5\nvalue = [4, 1]\nclass = close", fillcolor="#eca06a"] ;
301 -> 305 ;
306 [label="gini = 0.0\nsamples = 4\nvalue = [4, 0]\nclass = close", fillcolor="#e58139"] ;
305 -> 306 ;
307 [label="gini = 0.0\nsamples = 1\nvalue = [0, 1]\nclass = open", fillcolor="#399de5"] ;
305 -> 307 ;
308 [label="gini = 0.0\nsamples = 33\nvalue = [0, 33]\nclass = open", fillcolor="#399de5"] ;
300 -> 308 ;
309 [label="F3 <= 4244.105\ngini = 0.375\nsamples = 8\nvalue = [6, 2]\nclass = close", fillcolor="#eeab7b"] ;
297 -> 309 ;
310 [label="gini = 0.0\nsamples = 2\nvalue = [0, 2]\nclass = open", fillcolor="#399de5"] ;
309 -> 310 ;
311 [label="gini = 0.0\nsamples = 6\nvalue = [6, 0]\nclass = close", fillcolor="#e58139"] ;
309 -> 311 ;
312 [label="FC6 <= 4177.435\ngini = 0.494\nsamples = 79\nvalue = [44, 35]\nclass = close", fillcolor="#fae5d7"] ;
296 -> 312 ;
313 [label="gini = 0.0\nsamples = 9\nvalue = [0, 9]\nclass = open", fillcolor="#399de5"] ;
312 -> 313 ;
314 [label="T7 <= 4334.105\ngini = 0.467\nsamples = 70\nvalue = [44, 26]\nclass = close", fillcolor="#f4cbae"] ;
312 -> 314 ;
315 [label="F4 <= 4252.565\ngini = 0.312\nsamples = 31\nvalue = [25, 6]\nclass = close", fillcolor="#eb9f69"] ;
314 -> 315 ;
316 [label="gini = 0.0\nsamples = 2\nvalue = [0, 2]\nclass = open", fillcolor="#399de5"] ;
315 -> 316 ;
317 [label="F3 <= 4244.36\ngini = 0.238\nsamples = 29\nvalue = [25, 4]\nclass = close", fillcolor="#e99559"] ;
315 -> 317 ;
318 [label="gini = 0.0\nsamples = 1\nvalue = [0, 1]\nclass = open", fillcolor="#399de5"] ;
317 -> 318 ;
319 [label="O2 <= 4599.745\ngini = 0.191\nsamples = 28\nvalue = [25, 3]\nclass = close", fillcolor="#e89051"] ;
317 -> 319 ;
320 [label="F3 <= 4253.33\ngini = 0.397\nsamples = 11\nvalue = [8, 3]\nclass = close", fillcolor="#efb083"] ;
319 -> 320 ;
321 [label="O1 <= 4073.335\ngini = 0.198\nsamples = 9\nvalue = [8, 1]\nclass = close", fillcolor="#e89152"] ;
320 -> 321 ;
322 [label="gini = 0.0\nsamples = 8\nvalue = [8, 0]\nclass = close", fillcolor="#e58139"] ;
321 -> 322 ;
323 [label="gini = 0.0\nsamples = 1\nvalue = [0, 1]\nclass = open", fillcolor="#399de5"] ;
321 -> 323 ;
324 [label="gini = 0.0\nsamples = 2\nvalue = [0, 2]\nclass = open", fillcolor="#399de5"] ;
320 -> 324 ;
325 [label="gini = 0.0\nsamples = 17\nvalue = [17, 0]\nclass = close", fillcolor="#e58139"] ;
319 -> 325 ;
326 [label="AF4 <= 4349.485\ngini = 0.5\nsamples = 39\nvalue = [19, 20]\nclass = open", fillcolor="#f5fafe"] ;
314 -> 326 ;
327 [label="F3 <= 4261.285\ngini = 0.408\nsamples = 21\nvalue = [15, 6]\nclass = close", fillcolor="#efb388"] ;
326 -> 327 ;
328 [label="FC5 <= 4110.77\ngini = 0.5\nsamples = 12\nvalue = [6, 6]\nclass = close", fillcolor="#ffffff"] ;
327 -> 328 ;
329 [label="gini = 0.0\nsamples = 3\nvalue = [3, 0]\nclass = close", fillcolor="#e58139"] ;
328 -> 329 ;
330 [label="O2 <= 4611.28\ngini = 0.444\nsamples = 9\nvalue = [3, 6]\nclass = open", fillcolor="#9ccef2"] ;
328 -> 330 ;
331 [label="F4 <= 4260.0\ngini = 0.245\nsamples = 7\nvalue = [1, 6]\nclass = open", fillcolor="#5aade9"] ;
330 -> 331 ;
332 [label="gini = 0.0\nsamples = 1\nvalue = [1, 0]\nclass = close", fillcolor="#e58139"] ;
331 -> 332 ;
333 [label="gini = 0.0\nsamples = 6\nvalue = [0, 6]\nclass = open", fillcolor="#399de5"] ;
331 -> 333 ;
334 [label="gini = 0.0\nsamples = 2\nvalue = [2, 0]\nclass = close", fillcolor="#e58139"] ;
330 -> 334 ;
335 [label="gini = 0.0\nsamples = 9\nvalue = [9, 0]\nclass = close", fillcolor="#e58139"] ;
327 -> 335 ;
336 [label="F3 <= 4253.59\ngini = 0.346\nsamples = 18\nvalue = [4, 14]\nclass = open", fillcolor="#72b9ec"] ;
326 -> 336 ;
337 [label="gini = 0.0\nsamples = 3\nvalue = [3, 0]\nclass = close", fillcolor="#e58139"] ;
336 -> 337 ;
338 [label="F4 <= 4264.875\ngini = 0.124\nsamples = 15\nvalue = [1, 14]\nclass = open", fillcolor="#47a4e7"] ;
336 -> 338 ;
339 [label="gini = 0.0\nsamples = 14\nvalue = [0, 14]\nclass = open", fillcolor="#399de5"] ;
338 -> 339 ;
340 [label="gini = 0.0\nsamples = 1\nvalue = [1, 0]\nclass = close", fillcolor="#e58139"] ;
338 -> 340 ;
341 [label="P7 <= 4586.41\ngini = 0.446\nsamples = 3809\nvalue = [2528, 1281]\nclass = close", fillcolor="#f2c19d"] ;
3 -> 341 ;
342 [label="F7 <= 3999.485\ngini = 0.213\nsamples = 124\nvalue = [15, 109]\nclass = open", fillcolor="#54aae9"] ;
341 -> 342 ;
343 [label="F4 <= 4270.0\ngini = 0.124\nsamples = 15\nvalue = [14, 1]\nclass = close", fillcolor="#e78a47"] ;
342 -> 343 ;
344 [label="gini = 0.0\nsamples = 1\nvalue = [0, 1]\nclass = open", fillcolor="#399de5"] ;
343 -> 344 ;
345 [label="gini = 0.0\nsamples = 14\nvalue = [14, 0]\nclass = close", fillcolor="#e58139"] ;
343 -> 345 ;
346 [label="T8 <= 4204.36\ngini = 0.018\nsamples = 109\nvalue = [1, 108]\nclass = open", fillcolor="#3b9ee5"] ;
342 -> 346 ;
347 [label="gini = 0.0\nsamples = 1\nvalue = [1, 0]\nclass = close", fillcolor="#e58139"] ;
346 -> 347 ;
348 [label="gini = 0.0\nsamples = 108\nvalue = [0, 108]\nclass = open", fillcolor="#399de5"] ;
346 -> 348 ;
349 [label="P7 <= 4611.535\ngini = 0.434\nsamples = 3685\nvalue = [2513, 1172]\nclass = close", fillcolor="#f1bc95"] ;
341 -> 349 ;
350 [label="FC6 <= 4154.105\ngini = 0.334\nsamples = 1903\nvalue = [1500, 403]\nclass = close", fillcolor="#eca36e"] ;
349 -> 350 ;
351 [label="gini = 0.0\nsamples = 26\nvalue = [0, 26]\nclass = open", fillcolor="#399de5"] ;
350 -> 351 ;
352 [label="O1 <= 4066.925\ngini = 0.321\nsamples = 1877\nvalue = [1500, 377]\nclass = close", fillcolor="#eca16b"] ;
350 -> 352 ;
353 [label="P7 <= 4602.82\ngini = 0.239\nsamples = 1167\nvalue = [1005, 162]\nclass = close", fillcolor="#e99559"] ;
352 -> 353 ;
354 [label="AF3 <= 4387.175\ngini = 0.102\nsamples = 425\nvalue = [402, 23]\nclass = close", fillcolor="#e68844"] ;
353 -> 354 ;
355 [label="F4 <= 4267.95\ngini = 0.094\nsamples = 423\nvalue = [402, 21]\nclass = close", fillcolor="#e68843"] ;
354 -> 355 ;
356 [label="T8 <= 4224.105\ngini = 0.299\nsamples = 60\nvalue = [49, 11]\nclass = close", fillcolor="#eb9d65"] ;
355 -> 356 ;
357 [label="AF4 <= 4325.385\ngini = 0.087\nsamples = 44\nvalue = [42, 2]\nclass = close", fillcolor="#e68742"] ;
356 -> 357 ;
358 [label="gini = 0.0\nsamples = 1\nvalue = [0, 1]\nclass = open", fillcolor="#399de5"] ;
357 -> 358 ;
359 [label="AF3 <= 4268.975\ngini = 0.045\nsamples = 43\nvalue = [42, 1]\nclass = close", fillcolor="#e6843e"] ;
357 -> 359 ;
360 [label="FC5 <= 4111.025\ngini = 0.278\nsamples = 6\nvalue = [5, 1]\nclass = close", fillcolor="#ea9a61"] ;
359 -> 360 ;
361 [label="gini = 0.0\nsamples = 5\nvalue = [5, 0]\nclass = close", fillcolor="#e58139"] ;
360 -> 361 ;
362 [label="gini = 0.0\nsamples = 1\nvalue = [0, 1]\nclass = open", fillcolor="#399de5"] ;
360 -> 362 ;
363 [label="gini = 0.0\nsamples = 37\nvalue = [37, 0]\nclass = close", fillcolor="#e58139"] ;
359 -> 363 ;
364 [label="P8 <= 4195.385\ngini = 0.492\nsamples = 16\nvalue = [7, 9]\nclass = open", fillcolor="#d3e9f9"] ;
356 -> 364 ;
365 [label="FC5 <= 4123.075\ngini = 0.219\nsamples = 8\nvalue = [1, 7]\nclass = open", fillcolor="#55abe9"] ;
364 -> 365 ;
366 [label="gini = 0.0\nsamples = 7\nvalue = [0, 7]\nclass = open", fillcolor="#399de5"] ;
365 -> 366 ;
367 [label="gini = 0.0\nsamples = 1\nvalue = [1, 0]\nclass = close", fillcolor="#e58139"] ;
365 -> 367 ;
368 [label="O1 <= 4048.975\ngini = 0.375\nsamples = 8\nvalue = [6, 2]\nclass = close", fillcolor="#eeab7b"] ;
364 -> 368 ;
369 [label="gini = 0.0\nsamples = 6\nvalue = [6, 0]\nclass = close", fillcolor="#e58139"] ;
368 -> 369 ;
370 [label="gini = 0.0\nsamples = 2\nvalue = [0, 2]\nclass = open", fillcolor="#399de5"] ;
368 -> 370 ;
371 [label="O1 <= 4057.695\ngini = 0.054\nsamples = 363\nvalue = [353, 10]\nclass = close", fillcolor="#e6853f"] ;
355 -> 371 ;
372 [label="gini = 0.0\nsamples = 272\nvalue = [272, 0]\nclass = close", fillcolor="#e58139"] ;
371 -> 372 ;
373 [label="AF3 <= 4303.59\ngini = 0.196\nsamples = 91\nvalue = [81, 10]\nclass = close", fillcolor="#e89151"] ;
371 -> 373 ;
374 [label="FC6 <= 4193.845\ngini = 0.459\nsamples = 28\nvalue = [18, 10]\nclass = close", fillcolor="#f3c7a7"] ;
373 -> 374 ;
375 [label="gini = 0.0\nsamples = 13\nvalue = [13, 0]\nclass = close", fillcolor="#e58139"] ;
374 -> 375 ;
376 [label="FC5 <= 4104.87\ngini = 0.444\nsamples = 15\nvalue = [5, 10]\nclass = open", fillcolor="#9ccef2"] ;
374 -> 376 ;
377 [label="gini = 0.0\nsamples = 5\nvalue = [5, 0]\nclass = close", fillcolor="#e58139"] ;
376 -> 377 ;
378 [label="gini = 0.0\nsamples = 10\nvalue = [0, 10]\nclass = open", fillcolor="#399de5"] ;
376 -> 378 ;
379 [label="gini = 0.0\nsamples = 63\nvalue = [63, 0]\nclass = close", fillcolor="#e58139"] ;
373 -> 379 ;
380 [label="gini = 0.0\nsamples = 2\nvalue = [0, 2]\nclass = open", fillcolor="#399de5"] ;
354 -> 380 ;
381 [label="AF3 <= 4293.59\ngini = 0.304\nsamples = 742\nvalue = [603, 139]\nclass = close", fillcolor="#eb9e67"] ;
353 -> 381 ;
382 [label="F3 <= 4265.385\ngini = 0.368\nsamples = 456\nvalue = [345, 111]\nclass = close", fillcolor="#edaa79"] ;
381 -> 382 ;
383 [label="P8 <= 4184.875\ngini = 0.332\nsamples = 419\nvalue = [331, 88]\nclass = close", fillcolor="#eca26e"] ;
382 -> 383 ;
384 [label="AF4 <= 4320.0\ngini = 0.107\nsamples = 106\nvalue = [100, 6]\nclass = close", fillcolor="#e78945"] ;
383 -> 384 ;
385 [label="gini = 0.0\nsamples = 1\nvalue = [0, 1]\nclass = open", fillcolor="#399de5"] ;
384 -> 385 ;
386 [label="F7 <= 4015.64\ngini = 0.091\nsamples = 105\nvalue = [100, 5]\nclass = close", fillcolor="#e68743"] ;
384 -> 386 ;
387 [label="O1 <= 4062.82\ngini = 0.074\nsamples = 104\nvalue = [100, 4]\nclass = close", fillcolor="#e68641"] ;
386 -> 387 ;
388 [label="FC6 <= 4175.64\ngini = 0.04\nsamples = 97\nvalue = [95, 2]\nclass = close", fillcolor="#e6843d"] ;
387 -> 388 ;
389 [label="AF4 <= 4349.745\ngini = 0.32\nsamples = 5\nvalue = [4, 1]\nclass = close", fillcolor="#eca06a"] ;
388 -> 389 ;
390 [label="gini = 0.0\nsamples = 4\nvalue = [4, 0]\nclass = close", fillcolor="#e58139"] ;
389 -> 390 ;
391 [label="gini = 0.0\nsamples = 1\nvalue = [0, 1]\nclass = open", fillcolor="#399de5"] ;
389 -> 391 ;
392 [label="AF4 <= 4330.515\ngini = 0.022\nsamples = 92\nvalue = [91, 1]\nclass = close", fillcolor="#e5823b"] ;
388 -> 392 ;
393 [label="AF3 <= 4280.51\ngini = 0.219\nsamples = 8\nvalue = [7, 1]\nclass = close", fillcolor="#e99355"] ;
392 -> 393 ;
394 [label="gini = 0.0\nsamples = 7\nvalue = [7, 0]\nclass = close", fillcolor="#e58139"] ;
393 -> 394 ;
395 [label="gini = 0.0\nsamples = 1\nvalue = [0, 1]\nclass = open", fillcolor="#399de5"] ;
393 -> 395 ;
396 [label="gini = 0.0\nsamples = 84\nvalue = [84, 0]\nclass = close", fillcolor="#e58139"] ;
392 -> 396 ;
397 [label="F7 <= 3998.205\ngini = 0.408\nsamples = 7\nvalue = [5, 2]\nclass = close", fillcolor="#efb388"] ;
387 -> 397 ;
398 [label="gini = 0.0\nsamples = 5\nvalue = [5, 0]\nclass = close", fillcolor="#e58139"] ;
397 -> 398 ;
399 [label="gini = 0.0\nsamples = 2\nvalue = [0, 2]\nclass = open", fillcolor="#399de5"] ;
397 -> 399 ;
400 [label="gini = 0.0\nsamples = 1\nvalue = [0, 1]\nclass = open", fillcolor="#399de5"] ;
386 -> 400 ;
401 [label="F3 <= 4253.59\ngini = 0.387\nsamples = 313\nvalue = [231, 82]\nclass = close", fillcolor="#eeae7f"] ;
383 -> 401 ;
402 [label="FC6 <= 4190.515\ngini = 0.255\nsamples = 153\nvalue = [130, 23]\nclass = close", fillcolor="#ea975c"] ;
401 -> 402 ;
403 [label="T8 <= 4223.08\ngini = 0.483\nsamples = 22\nvalue = [13, 9]\nclass = close", fillcolor="#f7d8c2"] ;
402 -> 403 ;
404 [label="T7 <= 4334.615\ngini = 0.26\nsamples = 13\nvalue = [11, 2]\nclass = close", fillcolor="#ea985d"] ;
403 -> 404 ;
405 [label="gini = 0.0\nsamples = 11\nvalue = [11, 0]\nclass = close", fillcolor="#e58139"] ;
404 -> 405 ;
406 [label="gini = 0.0\nsamples = 2\nvalue = [0, 2]\nclass = open", fillcolor="#399de5"] ;
404 -> 406 ;
407 [label="F4 <= 4265.895\ngini = 0.346\nsamples = 9\nvalue = [2, 7]\nclass = open", fillcolor="#72b9ec"] ;
403 -> 407 ;
408 [label="gini = 0.0\nsamples = 2\nvalue = [2, 0]\nclass = close", fillcolor="#e58139"] ;
407 -> 408 ;
409 [label="gini = 0.0\nsamples = 7\nvalue = [0, 7]\nclass = open", fillcolor="#399de5"] ;
407 -> 409 ;
410 [label="FC5 <= 4119.745\ngini = 0.191\nsamples = 131\nvalue = [117, 14]\nclass = close", fillcolor="#e89051"] ;
402 -> 410 ;
411 [label="AF4 <= 4356.665\ngini = 0.101\nsamples = 113\nvalue = [107, 6]\nclass = close", fillcolor="#e68844"] ;
410 -> 411 ;
412 [label="F7 <= 4016.665\ngini = 0.055\nsamples = 107\nvalue = [104, 3]\nclass = close", fillcolor="#e6853f"] ;
411 -> 412 ;
413 [label="T7 <= 4318.205\ngini = 0.037\nsamples = 106\nvalue = [104, 2]\nclass = close", fillcolor="#e6833d"] ;
412 -> 413 ;
414 [label="gini = 0.0\nsamples = 1\nvalue = [0, 1]\nclass = open", fillcolor="#399de5"] ;
413 -> 414 ;
415 [label="P7 <= 4611.025\ngini = 0.019\nsamples = 105\nvalue = [104, 1]\nclass = close", fillcolor="#e5823b"] ;
413 -> 415 ;
416 [label="gini = 0.0\nsamples = 99\nvalue = [99, 0]\nclass = close", fillcolor="#e58139"] ;
415 -> 416 ;
417 [label="F4 <= 4269.74\ngini = 0.278\nsamples = 6\nvalue = [5, 1]\nclass = close", fillcolor="#ea9a61"] ;
415 -> 417 ;
418 [label="gini = 0.0\nsamples = 1\nvalue = [0, 1]\nclass = open", fillcolor="#399de5"] ;
417 -> 418 ;
419 [label="gini = 0.0\nsamples = 5\nvalue = [5, 0]\nclass = close", fillcolor="#e58139"] ;
417 -> 419 ;
420 [label="gini = 0.0\nsamples = 1\nvalue = [0, 1]\nclass = open", fillcolor="#399de5"] ;
412 -> 420 ;
421 [label="O1 <= 4050.77\ngini = 0.5\nsamples = 6\nvalue = [3, 3]\nclass = close", fillcolor="#ffffff"] ;
411 -> 421 ;
422 [label="gini = 0.0\nsamples = 3\nvalue = [0, 3]\nclass = open", fillcolor="#399de5"] ;
421 -> 422 ;
423 [label="gini = 0.0\nsamples = 3\nvalue = [3, 0]\nclass = close", fillcolor="#e58139"] ;
421 -> 423 ;
424 [label="O2 <= 4620.515\ngini = 0.494\nsamples = 18\nvalue = [10, 8]\nclass = close", fillcolor="#fae6d7"] ;
410 -> 424 ;
425 [label="F8 <= 4610.515\ngini = 0.32\nsamples = 10\nvalue = [2, 8]\nclass = open", fillcolor="#6ab6ec"] ;
424 -> 425 ;
426 [label="gini = 0.0\nsamples = 8\nvalue = [0, 8]\nclass = open", fillcolor="#399de5"] ;
425 -> 426 ;
427 [label="gini = 0.0\nsamples = 2\nvalue = [2, 0]\nclass = close", fillcolor="#e58139"] ;
425 -> 427 ;
428 [label="gini = 0.0\nsamples = 8\nvalue = [8, 0]\nclass = close", fillcolor="#e58139"] ;
424 -> 428 ;
429 [label="O1 <= 4059.745\ngini = 0.466\nsamples = 160\nvalue = [101, 59]\nclass = close", fillcolor="#f4cbad"] ;
401 -> 429 ;
430 [label="F4 <= 4267.435\ngini = 0.423\nsamples = 138\nvalue = [96, 42]\nclass = close", fillcolor="#f0b890"] ;
429 -> 430 ;
431 [label="F7 <= 4009.745\ngini = 0.42\nsamples = 20\nvalue = [6, 14]\nclass = open", fillcolor="#8ec7f0"] ;
430 -> 431 ;
432 [label="AF3 <= 4282.82\ngini = 0.291\nsamples = 17\nvalue = [3, 14]\nclass = open", fillcolor="#63b2eb"] ;
431 -> 432 ;
433 [label="gini = 0.0\nsamples = 10\nvalue = [0, 10]\nclass = open", fillcolor="#399de5"] ;
432 -> 433 ;
434 [label="O1 <= 4049.745\ngini = 0.49\nsamples = 7\nvalue = [3, 4]\nclass = open", fillcolor="#cee6f8"] ;
432 -> 434 ;
435 [label="FC5 <= 4107.95\ngini = 0.375\nsamples = 4\nvalue = [3, 1]\nclass = close", fillcolor="#eeab7b"] ;
434 -> 435 ;
436 [label="gini = 0.0\nsamples = 1\nvalue = [0, 1]\nclass = open", fillcolor="#399de5"] ;
435 -> 436 ;
437 [label="gini = 0.0\nsamples = 3\nvalue = [3, 0]\nclass = close", fillcolor="#e58139"] ;
435 -> 437 ;
438 [label="gini = 0.0\nsamples = 3\nvalue = [0, 3]\nclass = open", fillcolor="#399de5"] ;
434 -> 438 ;
439 [label="gini = 0.0\nsamples = 3\nvalue = [3, 0]\nclass = close", fillcolor="#e58139"] ;
431 -> 439 ;
440 [label="T8 <= 4234.87\ngini = 0.362\nsamples = 118\nvalue = [90, 28]\nclass = close", fillcolor="#eda877"] ;
430 -> 440 ;
441 [label="FC5 <= 4135.13\ngini = 0.282\nsamples = 100\nvalue = [83, 17]\nclass = close", fillcolor="#ea9b62"] ;
440 -> 441 ;
442 [label="F4 <= 4273.075\ngini = 0.259\nsamples = 98\nvalue = [83, 15]\nclass = close", fillcolor="#ea985d"] ;
441 -> 442 ;
443 [label="F8 <= 4596.665\ngini = 0.391\nsamples = 45\nvalue = [33, 12]\nclass = close", fillcolor="#eeaf81"] ;
442 -> 443 ;
444 [label="AF3 <= 4280.77\ngini = 0.284\nsamples = 35\nvalue = [29, 6]\nclass = close", fillcolor="#ea9b62"] ;
443 -> 444 ;
445 [label="T7 <= 4326.41\ngini = 0.49\nsamples = 7\nvalue = [3, 4]\nclass = open", fillcolor="#cee6f8"] ;
444 -> 445 ;
446 [label="gini = 0.0\nsamples = 3\nvalue = [3, 0]\nclass = close", fillcolor="#e58139"] ;
445 -> 446 ;
447 [label="gini = 0.0\nsamples = 4\nvalue = [0, 4]\nclass = open", fillcolor="#399de5"] ;
445 -> 447 ;
448 [label="O1 <= 4048.975\ngini = 0.133\nsamples = 28\nvalue = [26, 2]\nclass = close", fillcolor="#e78b48"] ;
444 -> 448 ;
449 [label="O1 <= 4046.415\ngini = 0.48\nsamples = 5\nvalue = [3, 2]\nclass = close", fillcolor="#f6d5bd"] ;
448 -> 449 ;
450 [label="gini = 0.0\nsamples = 3\nvalue = [3, 0]\nclass = close", fillcolor="#e58139"] ;
449 -> 450 ;
451 [label="gini = 0.0\nsamples = 2\nvalue = [0, 2]\nclass = open", fillcolor="#399de5"] ;
449 -> 451 ;
452 [label="gini = 0.0\nsamples = 23\nvalue = [23, 0]\nclass = close", fillcolor="#e58139"] ;
448 -> 452 ;
453 [label="F7 <= 3995.385\ngini = 0.48\nsamples = 10\nvalue = [4, 6]\nclass = open", fillcolor="#bddef6"] ;
443 -> 453 ;
454 [label="gini = 0.0\nsamples = 4\nvalue = [0, 4]\nclass = open", fillcolor="#399de5"] ;
453 -> 454 ;
455 [label="AF4 <= 4356.41\ngini = 0.444\nsamples = 6\nvalue = [4, 2]\nclass = close", fillcolor="#f2c09c"] ;
453 -> 455 ;
456 [label="gini = 0.0\nsamples = 3\nvalue = [3, 0]\nclass = close", fillcolor="#e58139"] ;
455 -> 456 ;
457 [label="AF3 <= 4290.0\ngini = 0.444\nsamples = 3\nvalue = [1, 2]\nclass = open", fillcolor="#9ccef2"] ;
455 -> 457 ;
458 [label="gini = 0.0\nsamples = 2\nvalue = [0, 2]\nclass = open", fillcolor="#399de5"] ;
457 -> 458 ;
459 [label="gini = 0.0\nsamples = 1\nvalue = [1, 0]\nclass = close", fillcolor="#e58139"] ;
457 -> 459 ;
460 [label="AF4 <= 4333.08\ngini = 0.107\nsamples = 53\nvalue = [50, 3]\nclass = close", fillcolor="#e78945"] ;
442 -> 460 ;
461 [label="gini = 0.0\nsamples = 1\nvalue = [0, 1]\nclass = open", fillcolor="#399de5"] ;
460 -> 461 ;
462 [label="F8 <= 4574.875\ngini = 0.074\nsamples = 52\nvalue = [50, 2]\nclass = close", fillcolor="#e68641"] ;
460 -> 462 ;
463 [label="F7 <= 3995.385\ngini = 0.5\nsamples = 2\nvalue = [1, 1]\nclass = close", fillcolor="#ffffff"] ;
462 -> 463 ;
464 [label="gini = 0.0\nsamples = 1\nvalue = [0, 1]\nclass = open", fillcolor="#399de5"] ;
463 -> 464 ;
465 [label="gini = 0.0\nsamples = 1\nvalue = [1, 0]\nclass = close", fillcolor="#e58139"] ;
463 -> 465 ;
466 [label="P8 <= 4188.975\ngini = 0.039\nsamples = 50\nvalue = [49, 1]\nclass = close", fillcolor="#e6843d"] ;
462 -> 466 ;
467 [label="F4 <= 4280.0\ngini = 0.278\nsamples = 6\nvalue = [5, 1]\nclass = close", fillcolor="#ea9a61"] ;
466 -> 467 ;
468 [label="gini = 0.0\nsamples = 5\nvalue = [5, 0]\nclass = close", fillcolor="#e58139"] ;
467 -> 468 ;
469 [label="gini = 0.0\nsamples = 1\nvalue = [0, 1]\nclass = open", fillcolor="#399de5"] ;
467 -> 469 ;
470 [label="gini = 0.0\nsamples = 44\nvalue = [44, 0]\nclass = close", fillcolor="#e58139"] ;
466 -> 470 ;
471 [label="gini = 0.0\nsamples = 2\nvalue = [0, 2]\nclass = open", fillcolor="#399de5"] ;
441 -> 471 ;
472 [label="T7 <= 4334.105\ngini = 0.475\nsamples = 18\nvalue = [7, 11]\nclass = open", fillcolor="#b7dbf6"] ;
440 -> 472 ;
473 [label="gini = 0.0\nsamples = 9\nvalue = [0, 9]\nclass = open", fillcolor="#399de5"] ;
472 -> 473 ;
474 [label="AF4 <= 4360.515\ngini = 0.346\nsamples = 9\nvalue = [7, 2]\nclass = close", fillcolor="#eca572"] ;
472 -> 474 ;
475 [label="gini = 0.0\nsamples = 7\nvalue = [7, 0]\nclass = close", fillcolor="#e58139"] ;
474 -> 475 ;
476 [label="gini = 0.0\nsamples = 2\nvalue = [0, 2]\nclass = open", fillcolor="#399de5"] ;
474 -> 476 ;
477 [label="F3 <= 4258.46\ngini = 0.351\nsamples = 22\nvalue = [5, 17]\nclass = open", fillcolor="#73baed"] ;
429 -> 477 ;
478 [label="AF3 <= 4279.49\ngini = 0.49\nsamples = 7\nvalue = [4, 3]\nclass = close", fillcolor="#f8e0ce"] ;
477 -> 478 ;
479 [label="gini = 0.0\nsamples = 3\nvalue = [0, 3]\nclass = open", fillcolor="#399de5"] ;
478 -> 479 ;
480 [label="gini = 0.0\nsamples = 4\nvalue = [4, 0]\nclass = close", fillcolor="#e58139"] ;
478 -> 480 ;
481 [label="P7 <= 4610.515\ngini = 0.124\nsamples = 15\nvalue = [1, 14]\nclass = open", fillcolor="#47a4e7"] ;
477 -> 481 ;
482 [label="gini = 0.0\nsamples = 13\nvalue = [0, 13]\nclass = open", fillcolor="#399de5"] ;
481 -> 482 ;
483 [label="F3 <= 4262.31\ngini = 0.5\nsamples = 2\nvalue = [1, 1]\nclass = close", fillcolor="#ffffff"] ;
481 -> 483 ;
484 [label="gini = 0.0\nsamples = 1\nvalue = [0, 1]\nclass = open", fillcolor="#399de5"] ;
483 -> 484 ;
485 [label="gini = 0.0\nsamples = 1\nvalue = [1, 0]\nclass = close", fillcolor="#e58139"] ;
483 -> 485 ;
486 [label="P8 <= 4187.44\ngini = 0.47\nsamples = 37\nvalue = [14, 23]\nclass = open", fillcolor="#b2d9f5"] ;
382 -> 486 ;
487 [label="F7 <= 3998.465\ngini = 0.245\nsamples = 7\nvalue = [6, 1]\nclass = close", fillcolor="#e9965a"] ;
486 -> 487 ;
488 [label="gini = 0.0\nsamples = 1\nvalue = [0, 1]\nclass = open", fillcolor="#399de5"] ;
487 -> 488 ;
489 [label="gini = 0.0\nsamples = 6\nvalue = [6, 0]\nclass = close", fillcolor="#e58139"] ;
487 -> 489 ;
490 [label="F4 <= 4274.36\ngini = 0.391\nsamples = 30\nvalue = [8, 22]\nclass = open", fillcolor="#81c1ee"] ;
486 -> 490 ;
491 [label="T7 <= 4343.335\ngini = 0.124\nsamples = 15\nvalue = [1, 14]\nclass = open", fillcolor="#47a4e7"] ;
490 -> 491 ;
492 [label="gini = 0.0\nsamples = 14\nvalue = [0, 14]\nclass = open", fillcolor="#399de5"] ;
491 -> 492 ;
493 [label="gini = 0.0\nsamples = 1\nvalue = [1, 0]\nclass = close", fillcolor="#e58139"] ;
491 -> 493 ;
494 [label="T7 <= 4336.67\ngini = 0.498\nsamples = 15\nvalue = [7, 8]\nclass = open", fillcolor="#e6f3fc"] ;
490 -> 494 ;
495 [label="T8 <= 4235.385\ngini = 0.346\nsamples = 9\nvalue = [7, 2]\nclass = close", fillcolor="#eca572"] ;
494 -> 495 ;
496 [label="gini = 0.0\nsamples = 6\nvalue = [6, 0]\nclass = close", fillcolor="#e58139"] ;
495 -> 496 ;
497 [label="P8 <= 4196.41\ngini = 0.444\nsamples = 3\nvalue = [1, 2]\nclass = open", fillcolor="#9ccef2"] ;
495 -> 497 ;
498 [label="gini = 0.0\nsamples = 1\nvalue = [1, 0]\nclass = close", fillcolor="#e58139"] ;
497 -> 498 ;
499 [label="gini = 0.0\nsamples = 2\nvalue = [0, 2]\nclass = open", fillcolor="#399de5"] ;
497 -> 499 ;
500 [label="gini = 0.0\nsamples = 6\nvalue = [0, 6]\nclass = open", fillcolor="#399de5"] ;
494 -> 500 ;
501 [label="O2 <= 4604.36\ngini = 0.177\nsamples = 286\nvalue = [258, 28]\nclass = close", fillcolor="#e88f4e"] ;
381 -> 501 ;
502 [label="F3 <= 4271.535\ngini = 0.41\nsamples = 73\nvalue = [52, 21]\nclass = close", fillcolor="#f0b489"] ;
501 -> 502 ;
503 [label="P8 <= 4202.05\ngini = 0.299\nsamples = 60\nvalue = [49, 11]\nclass = close", fillcolor="#eb9d65"] ;
502 -> 503 ;
504 [label="AF3 <= 4301.54\ngini = 0.219\nsamples = 56\nvalue = [49, 7]\nclass = close", fillcolor="#e99355"] ;
503 -> 504 ;
505 [label="FC5 <= 4128.72\ngini = 0.397\nsamples = 22\nvalue = [16, 6]\nclass = close", fillcolor="#efb083"] ;
504 -> 505 ;
506 [label="AF4 <= 4358.715\ngini = 0.266\nsamples = 19\nvalue = [16, 3]\nclass = close", fillcolor="#ea995e"] ;
505 -> 506 ;
507 [label="FC5 <= 4126.41\ngini = 0.111\nsamples = 17\nvalue = [16, 1]\nclass = close", fillcolor="#e78945"] ;
506 -> 507 ;
508 [label="gini = 0.0\nsamples = 15\nvalue = [15, 0]\nclass = close", fillcolor="#e58139"] ;
507 -> 508 ;
509 [label="O2 <= 4600.77\ngini = 0.5\nsamples = 2\nvalue = [1, 1]\nclass = close", fillcolor="#ffffff"] ;
507 -> 509 ;
510 [label="gini = 0.0\nsamples = 1\nvalue = [1, 0]\nclass = close", fillcolor="#e58139"] ;
509 -> 510 ;
511 [label="gini = 0.0\nsamples = 1\nvalue = [0, 1]\nclass = open", fillcolor="#399de5"] ;
509 -> 511 ;
512 [label="gini = 0.0\nsamples = 2\nvalue = [0, 2]\nclass = open", fillcolor="#399de5"] ;
506 -> 512 ;
513 [label="gini = 0.0\nsamples = 3\nvalue = [0, 3]\nclass = open", fillcolor="#399de5"] ;
505 -> 513 ;
514 [label="T7 <= 4317.95\ngini = 0.057\nsamples = 34\nvalue = [33, 1]\nclass = close", fillcolor="#e6853f"] ;
504 -> 514 ;
515 [label="gini = 0.0\nsamples = 1\nvalue = [0, 1]\nclass = open", fillcolor="#399de5"] ;
514 -> 515 ;
516 [label="gini = 0.0\nsamples = 33\nvalue = [33, 0]\nclass = close", fillcolor="#e58139"] ;
514 -> 516 ;
517 [label="gini = 0.0\nsamples = 4\nvalue = [0, 4]\nclass = open", fillcolor="#399de5"] ;
503 -> 517 ;
518 [label="AF4 <= 4363.845\ngini = 0.355\nsamples = 13\nvalue = [3, 10]\nclass = open", fillcolor="#74baed"] ;
502 -> 518 ;
519 [label="gini = 0.0\nsamples = 3\nvalue = [3, 0]\nclass = close", fillcolor="#e58139"] ;
518 -> 519 ;
520 [label="gini = 0.0\nsamples = 10\nvalue = [0, 10]\nclass = open", fillcolor="#399de5"] ;
518 -> 520 ;
521 [label="P8 <= 4227.95\ngini = 0.064\nsamples = 213\nvalue = [206, 7]\nclass = close", fillcolor="#e68540"] ;
501 -> 521 ;
522 [label="F7 <= 3991.535\ngini = 0.046\nsamples = 211\nvalue = [206, 5]\nclass = close", fillcolor="#e6843e"] ;
521 -> 522 ;
523 [label="P7 <= 4610.0\ngini = 0.26\nsamples = 13\nvalue = [11, 2]\nclass = close", fillcolor="#ea985d"] ;
522 -> 523 ;
524 [label="gini = 0.0\nsamples = 10\nvalue = [10, 0]\nclass = close", fillcolor="#e58139"] ;
523 -> 524 ;
525 [label="F7 <= 3984.615\ngini = 0.444\nsamples = 3\nvalue = [1, 2]\nclass = open", fillcolor="#9ccef2"] ;
523 -> 525 ;
526 [label="gini = 0.0\nsamples = 1\nvalue = [1, 0]\nclass = close", fillcolor="#e58139"] ;
525 -> 526 ;
527 [label="gini = 0.0\nsamples = 2\nvalue = [0, 2]\nclass = open", fillcolor="#399de5"] ;
525 -> 527 ;
528 [label="F7 <= 4012.05\ngini = 0.03\nsamples = 198\nvalue = [195, 3]\nclass = close", fillcolor="#e5833c"] ;
522 -> 528 ;
529 [label="FC5 <= 4136.665\ngini = 0.011\nsamples = 174\nvalue = [173, 1]\nclass = close", fillcolor="#e5823a"] ;
528 -> 529 ;
530 [label="gini = 0.0\nsamples = 162\nvalue = [162, 0]\nclass = close", fillcolor="#e58139"] ;
529 -> 530 ;
531 [label="FC5 <= 4137.18\ngini = 0.153\nsamples = 12\nvalue = [11, 1]\nclass = close", fillcolor="#e78c4b"] ;
529 -> 531 ;
532 [label="gini = 0.0\nsamples = 1\nvalue = [0, 1]\nclass = open", fillcolor="#399de5"] ;
531 -> 532 ;
533 [label="gini = 0.0\nsamples = 11\nvalue = [11, 0]\nclass = close", fillcolor="#e58139"] ;
531 -> 533 ;
534 [label="T7 <= 4325.385\ngini = 0.153\nsamples = 24\nvalue = [22, 2]\nclass = close", fillcolor="#e78c4b"] ;
528 -> 534 ;
535 [label="AF3 <= 4334.615\ngini = 0.48\nsamples = 5\nvalue = [3, 2]\nclass = close", fillcolor="#f6d5bd"] ;
534 -> 535 ;
536 [label="gini = 0.0\nsamples = 2\nvalue = [0, 2]\nclass = open", fillcolor="#399de5"] ;
535 -> 536 ;
537 [label="gini = 0.0\nsamples = 3\nvalue = [3, 0]\nclass = close", fillcolor="#e58139"] ;
535 -> 537 ;
538 [label="gini = 0.0\nsamples = 19\nvalue = [19, 0]\nclass = close", fillcolor="#e58139"] ;
534 -> 538 ;
539 [label="gini = 0.0\nsamples = 2\nvalue = [0, 2]\nclass = open", fillcolor="#399de5"] ;
521 -> 539 ;
540 [label="AF4 <= 4362.82\ngini = 0.422\nsamples = 710\nvalue = [495, 215]\nclass = close", fillcolor="#f0b88f"] ;
352 -> 540 ;
541 [label="FC5 <= 4115.125\ngini = 0.491\nsamples = 278\nvalue = [120, 158]\nclass = open", fillcolor="#cfe7f9"] ;
540 -> 541 ;
542 [label="AF4 <= 4340.255\ngini = 0.492\nsamples = 188\nvalue = [106, 82]\nclass = close", fillcolor="#f9e2d2"] ;
541 -> 542 ;
543 [label="F8 <= 4599.485\ngini = 0.113\nsamples = 50\nvalue = [3, 47]\nclass = open", fillcolor="#46a3e7"] ;
542 -> 543 ;
544 [label="F7 <= 3954.87\ngini = 0.042\nsamples = 47\nvalue = [1, 46]\nclass = open", fillcolor="#3d9fe6"] ;
543 -> 544 ;
545 [label="gini = 0.0\nsamples = 1\nvalue = [1, 0]\nclass = close", fillcolor="#e58139"] ;
544 -> 545 ;
546 [label="gini = 0.0\nsamples = 46\nvalue = [0, 46]\nclass = open", fillcolor="#399de5"] ;
544 -> 546 ;
547 [label="F3 <= 4241.795\ngini = 0.444\nsamples = 3\nvalue = [2, 1]\nclass = close", fillcolor="#f2c09c"] ;
543 -> 547 ;
548 [label="gini = 0.0\nsamples = 1\nvalue = [0, 1]\nclass = open", fillcolor="#399de5"] ;
547 -> 548 ;
549 [label="gini = 0.0\nsamples = 2\nvalue = [2, 0]\nclass = close", fillcolor="#e58139"] ;
547 -> 549 ;
550 [label="F7 <= 3983.59\ngini = 0.379\nsamples = 138\nvalue = [103, 35]\nclass = close", fillcolor="#eeac7c"] ;
542 -> 550 ;
551 [label="F3 <= 4260.77\ngini = 0.109\nsamples = 69\nvalue = [65, 4]\nclass = close", fillcolor="#e78945"] ;
550 -> 551 ;
552 [label="AF3 <= 4273.335\ngini = 0.084\nsamples = 68\nvalue = [65, 3]\nclass = close", fillcolor="#e68742"] ;
551 -> 552 ;
553 [label="P8 <= 4202.305\ngini = 0.408\nsamples = 7\nvalue = [5, 2]\nclass = close", fillcolor="#efb388"] ;
552 -> 553 ;
554 [label="gini = 0.0\nsamples = 5\nvalue = [5, 0]\nclass = close", fillcolor="#e58139"] ;
553 -> 554 ;
555 [label="gini = 0.0\nsamples = 2\nvalue = [0, 2]\nclass = open", fillcolor="#399de5"] ;
553 -> 555 ;
556 [label="F3 <= 4254.36\ngini = 0.032\nsamples = 61\nvalue = [60, 1]\nclass = close", fillcolor="#e5833c"] ;
552 -> 556 ;
557 [label="gini = 0.0\nsamples = 57\nvalue = [57, 0]\nclass = close", fillcolor="#e58139"] ;
556 -> 557 ;
558 [label="FC5 <= 4105.13\ngini = 0.375\nsamples = 4\nvalue = [3, 1]\nclass = close", fillcolor="#eeab7b"] ;
556 -> 558 ;
559 [label="gini = 0.0\nsamples = 1\nvalue = [0, 1]\nclass = open", fillcolor="#399de5"] ;
558 -> 559 ;
560 [label="gini = 0.0\nsamples = 3\nvalue = [3, 0]\nclass = close", fillcolor="#e58139"] ;
558 -> 560 ;
561 [label="gini = 0.0\nsamples = 1\nvalue = [0, 1]\nclass = open", fillcolor="#399de5"] ;
551 -> 561 ;
562 [label="FC6 <= 4203.335\ngini = 0.495\nsamples = 69\nvalue = [38, 31]\nclass = close", fillcolor="#fae8db"] ;
550 -> 562 ;
563 [label="F7 <= 4005.895\ngini = 0.426\nsamples = 52\nvalue = [36, 16]\nclass = close", fillcolor="#f1b991"] ;
562 -> 563 ;
564 [label="T7 <= 4325.385\ngini = 0.32\nsamples = 45\nvalue = [36, 9]\nclass = close", fillcolor="#eca06a"] ;
563 -> 564 ;
565 [label="O1 <= 4082.31\ngini = 0.5\nsamples = 14\nvalue = [7, 7]\nclass = close", fillcolor="#ffffff"] ;
564 -> 565 ;
566 [label="gini = 0.0\nsamples = 7\nvalue = [0, 7]\nclass = open", fillcolor="#399de5"] ;
565 -> 566 ;
567 [label="gini = 0.0\nsamples = 7\nvalue = [7, 0]\nclass = close", fillcolor="#e58139"] ;
565 -> 567 ;
568 [label="P7 <= 4598.205\ngini = 0.121\nsamples = 31\nvalue = [29, 2]\nclass = close", fillcolor="#e78a47"] ;
564 -> 568 ;
569 [label="gini = 0.0\nsamples = 1\nvalue = [0, 1]\nclass = open", fillcolor="#399de5"] ;
568 -> 569 ;
570 [label="F7 <= 3984.87\ngini = 0.064\nsamples = 30\nvalue = [29, 1]\nclass = close", fillcolor="#e68540"] ;
568 -> 570 ;
571 [label="AF4 <= 4348.715\ngini = 0.5\nsamples = 2\nvalue = [1, 1]\nclass = close", fillcolor="#ffffff"] ;
570 -> 571 ;
572 [label="gini = 0.0\nsamples = 1\nvalue = [0, 1]\nclass = open", fillcolor="#399de5"] ;
571 -> 572 ;
573 [label="gini = 0.0\nsamples = 1\nvalue = [1, 0]\nclass = close", fillcolor="#e58139"] ;
571 -> 573 ;
574 [label="gini = 0.0\nsamples = 28\nvalue = [28, 0]\nclass = close", fillcolor="#e58139"] ;
570 -> 574 ;
575 [label="gini = 0.0\nsamples = 7\nvalue = [0, 7]\nclass = open", fillcolor="#399de5"] ;
563 -> 575 ;
576 [label="AF3 <= 4308.205\ngini = 0.208\nsamples = 17\nvalue = [2, 15]\nclass = open", fillcolor="#53aae8"] ;
562 -> 576 ;
577 [label="gini = 0.0\nsamples = 15\nvalue = [0, 15]\nclass = open", fillcolor="#399de5"] ;
576 -> 577 ;
578 [label="gini = 0.0\nsamples = 2\nvalue = [2, 0]\nclass = close", fillcolor="#e58139"] ;
576 -> 578 ;
579 [label="F7 <= 3983.335\ngini = 0.263\nsamples = 90\nvalue = [14, 76]\nclass = open", fillcolor="#5dafea"] ;
541 -> 579 ;
580 [label="F3 <= 4256.155\ngini = 0.32\nsamples = 5\nvalue = [4, 1]\nclass = close", fillcolor="#eca06a"] ;
579 -> 580 ;
581 [label="gini = 0.0\nsamples = 4\nvalue = [4, 0]\nclass = close", fillcolor="#e58139"] ;
580 -> 581 ;
582 [label="gini = 0.0\nsamples = 1\nvalue = [0, 1]\nclass = open", fillcolor="#399de5"] ;
580 -> 582 ;
583 [label="P7 <= 4607.435\ngini = 0.208\nsamples = 85\nvalue = [10, 75]\nclass = open", fillcolor="#53aae8"] ;
579 -> 583 ;
584 [label="P8 <= 4209.745\ngini = 0.039\nsamples = 50\nvalue = [1, 49]\nclass = open", fillcolor="#3d9fe6"] ;
583 -> 584 ;
585 [label="gini = 0.0\nsamples = 49\nvalue = [0, 49]\nclass = open", fillcolor="#399de5"] ;
584 -> 585 ;
586 [label="gini = 0.0\nsamples = 1\nvalue = [1, 0]\nclass = close", fillcolor="#e58139"] ;
584 -> 586 ;
587 [label="F7 <= 4005.645\ngini = 0.382\nsamples = 35\nvalue = [9, 26]\nclass = open", fillcolor="#7ebfee"] ;
583 -> 587 ;
588 [label="FC5 <= 4118.715\ngini = 0.26\nsamples = 26\nvalue = [4, 22]\nclass = open", fillcolor="#5dafea"] ;
587 -> 588 ;
589 [label="T7 <= 4330.0\ngini = 0.48\nsamples = 5\nvalue = [3, 2]\nclass = close", fillcolor="#f6d5bd"] ;
588 -> 589 ;
590 [label="gini = 0.0\nsamples = 2\nvalue = [0, 2]\nclass = open", fillcolor="#399de5"] ;
589 -> 590 ;
591 [label="gini = 0.0\nsamples = 3\nvalue = [3, 0]\nclass = close", fillcolor="#e58139"] ;
589 -> 591 ;
592 [label="T7 <= 4321.795\ngini = 0.091\nsamples = 21\nvalue = [1, 20]\nclass = open", fillcolor="#43a2e6"] ;
588 -> 592 ;
593 [label="gini = 0.0\nsamples = 1\nvalue = [1, 0]\nclass = close", fillcolor="#e58139"] ;
592 -> 593 ;
594 [label="gini = 0.0\nsamples = 20\nvalue = [0, 20]\nclass = open", fillcolor="#399de5"] ;
592 -> 594 ;
595 [label="O2 <= 4615.9\ngini = 0.494\nsamples = 9\nvalue = [5, 4]\nclass = close", fillcolor="#fae6d7"] ;
587 -> 595 ;
596 [label="F8 <= 4608.46\ngini = 0.278\nsamples = 6\nvalue = [5, 1]\nclass = close", fillcolor="#ea9a61"] ;
595 -> 596 ;
597 [label="gini = 0.0\nsamples = 5\nvalue = [5, 0]\nclass = close", fillcolor="#e58139"] ;
596 -> 597 ;
598 [label="gini = 0.0\nsamples = 1\nvalue = [0, 1]\nclass = open", fillcolor="#399de5"] ;
596 -> 598 ;
599 [label="gini = 0.0\nsamples = 3\nvalue = [0, 3]\nclass = open", fillcolor="#399de5"] ;
595 -> 599 ;
600 [label="F7 <= 4001.285\ngini = 0.229\nsamples = 432\nvalue = [375, 57]\nclass = close", fillcolor="#e99457"] ;
540 -> 600 ;
601 [label="F7 <= 3993.59\ngini = 0.056\nsamples = 313\nvalue = [304, 9]\nclass = close", fillcolor="#e6853f"] ;
600 -> 601 ;
602 [label="AF4 <= 4484.615\ngini = 0.016\nsamples = 256\nvalue = [254, 2]\nclass = close", fillcolor="#e5823b"] ;
601 -> 602 ;
603 [label="O1 <= 4067.95\ngini = 0.008\nsamples = 250\nvalue = [249, 1]\nclass = close", fillcolor="#e5823a"] ;
602 -> 603 ;
604 [label="FC6 <= 4226.155\ngini = 0.133\nsamples = 14\nvalue = [13, 1]\nclass = close", fillcolor="#e78b48"] ;
603 -> 604 ;
605 [label="gini = 0.0\nsamples = 13\nvalue = [13, 0]\nclass = close", fillcolor="#e58139"] ;
604 -> 605 ;
606 [label="gini = 0.0\nsamples = 1\nvalue = [0, 1]\nclass = open", fillcolor="#399de5"] ;
604 -> 606 ;
607 [label="gini = 0.0\nsamples = 236\nvalue = [236, 0]\nclass = close", fillcolor="#e58139"] ;
603 -> 607 ;
608 [label="F8 <= 4760.255\ngini = 0.278\nsamples = 6\nvalue = [5, 1]\nclass = close", fillcolor="#ea9a61"] ;
602 -> 608 ;
609 [label="gini = 0.0\nsamples = 1\nvalue = [0, 1]\nclass = open", fillcolor="#399de5"] ;
608 -> 609 ;
610 [label="gini = 0.0\nsamples = 5\nvalue = [5, 0]\nclass = close", fillcolor="#e58139"] ;
608 -> 610 ;
611 [label="F7 <= 3994.105\ngini = 0.215\nsamples = 57\nvalue = [50, 7]\nclass = close", fillcolor="#e99355"] ;
601 -> 611 ;
612 [label="gini = 0.0\nsamples = 2\nvalue = [0, 2]\nclass = open", fillcolor="#399de5"] ;
611 -> 612 ;
613 [label="FC6 <= 4257.435\ngini = 0.165\nsamples = 55\nvalue = [50, 5]\nclass = close", fillcolor="#e88e4d"] ;
611 -> 613 ;
614 [label="P7 <= 4589.745\ngini = 0.137\nsamples = 54\nvalue = [50, 4]\nclass = close", fillcolor="#e78b49"] ;
613 -> 614 ;
615 [label="gini = 0.0\nsamples = 1\nvalue = [0, 1]\nclass = open", fillcolor="#399de5"] ;
614 -> 615 ;
616 [label="F3 <= 4265.13\ngini = 0.107\nsamples = 53\nvalue = [50, 3]\nclass = close", fillcolor="#e78945"] ;
614 -> 616 ;
617 [label="gini = 0.0\nsamples = 32\nvalue = [32, 0]\nclass = close", fillcolor="#e58139"] ;
616 -> 617 ;
618 [label="AF3 <= 4302.05\ngini = 0.245\nsamples = 21\nvalue = [18, 3]\nclass = close", fillcolor="#e9965a"] ;
616 -> 618 ;
619 [label="gini = 0.0\nsamples = 3\nvalue = [0, 3]\nclass = open", fillcolor="#399de5"] ;
618 -> 619 ;
620 [label="gini = 0.0\nsamples = 18\nvalue = [18, 0]\nclass = close", fillcolor="#e58139"] ;
618 -> 620 ;
621 [label="gini = 0.0\nsamples = 1\nvalue = [0, 1]\nclass = open", fillcolor="#399de5"] ;
613 -> 621 ;
622 [label="P8 <= 4206.155\ngini = 0.481\nsamples = 119\nvalue = [71, 48]\nclass = close", fillcolor="#f7d6bf"] ;
600 -> 622 ;
623 [label="AF4 <= 4390.255\ngini = 0.375\nsamples = 84\nvalue = [63, 21]\nclass = close", fillcolor="#eeab7b"] ;
622 -> 623 ;
624 [label="F8 <= 4611.025\ngini = 0.478\nsamples = 53\nvalue = [32, 21]\nclass = close", fillcolor="#f6d4bb"] ;
623 -> 624 ;
625 [label="F7 <= 4015.895\ngini = 0.301\nsamples = 38\nvalue = [31, 7]\nclass = close", fillcolor="#eb9d66"] ;
624 -> 625 ;
626 [label="O2 <= 4597.435\ngini = 0.114\nsamples = 33\nvalue = [31, 2]\nclass = close", fillcolor="#e78946"] ;
625 -> 626 ;
627 [label="gini = 0.0\nsamples = 1\nvalue = [0, 1]\nclass = open", fillcolor="#399de5"] ;
626 -> 627 ;
628 [label="O2 <= 4601.285\ngini = 0.061\nsamples = 32\nvalue = [31, 1]\nclass = close", fillcolor="#e6853f"] ;
626 -> 628 ;
629 [label="F4 <= 4277.18\ngini = 0.444\nsamples = 3\nvalue = [2, 1]\nclass = close", fillcolor="#f2c09c"] ;
628 -> 629 ;
630 [label="gini = 0.0\nsamples = 2\nvalue = [2, 0]\nclass = close", fillcolor="#e58139"] ;
629 -> 630 ;
631 [label="gini = 0.0\nsamples = 1\nvalue = [0, 1]\nclass = open", fillcolor="#399de5"] ;
629 -> 631 ;
632 [label="gini = 0.0\nsamples = 29\nvalue = [29, 0]\nclass = close", fillcolor="#e58139"] ;
628 -> 632 ;
633 [label="gini = 0.0\nsamples = 5\nvalue = [0, 5]\nclass = open", fillcolor="#399de5"] ;
625 -> 633 ;
634 [label="P8 <= 4203.33\ngini = 0.124\nsamples = 15\nvalue = [1, 14]\nclass = open", fillcolor="#47a4e7"] ;
624 -> 634 ;
635 [label="gini = 0.0\nsamples = 14\nvalue = [0, 14]\nclass = open", fillcolor="#399de5"] ;
634 -> 635 ;
636 [label="gini = 0.0\nsamples = 1\nvalue = [1, 0]\nclass = close", fillcolor="#e58139"] ;
634 -> 636 ;
637 [label="gini = 0.0\nsamples = 31\nvalue = [31, 0]\nclass = close", fillcolor="#e58139"] ;
623 -> 637 ;
638 [label="F8 <= 4611.28\ngini = 0.353\nsamples = 35\nvalue = [8, 27]\nclass = open", fillcolor="#74baed"] ;
622 -> 638 ;
639 [label="gini = 0.0\nsamples = 7\nvalue = [7, 0]\nclass = close", fillcolor="#e58139"] ;
638 -> 639 ;
640 [label="FC6 <= 4302.565\ngini = 0.069\nsamples = 28\nvalue = [1, 27]\nclass = open", fillcolor="#40a1e6"] ;
638 -> 640 ;
641 [label="gini = 0.0\nsamples = 27\nvalue = [0, 27]\nclass = open", fillcolor="#399de5"] ;
640 -> 641 ;
642 [label="gini = 0.0\nsamples = 1\nvalue = [1, 0]\nclass = close", fillcolor="#e58139"] ;
640 -> 642 ;
643 [label="AF3 <= 4303.845\ngini = 0.491\nsamples = 1782\nvalue = [1013, 769]\nclass = close", fillcolor="#f9e1cf"] ;
349 -> 643 ;
644 [label="O1 <= 4051.025\ngini = 0.5\nsamples = 1392\nvalue = [694, 698]\nclass = open", fillcolor="#fefeff"] ;
643 -> 644 ;
645 [label="FC6 <= 4181.285\ngini = 0.377\nsamples = 214\nvalue = [160, 54]\nclass = close", fillcolor="#eeac7c"] ;
644 -> 645 ;
646 [label="F8 <= 4574.875\ngini = 0.18\nsamples = 20\nvalue = [2, 18]\nclass = open", fillcolor="#4fa8e8"] ;
645 -> 646 ;
647 [label="gini = 0.0\nsamples = 2\nvalue = [2, 0]\nclass = close", fillcolor="#e58139"] ;
646 -> 647 ;
648 [label="gini = 0.0\nsamples = 18\nvalue = [0, 18]\nclass = open", fillcolor="#399de5"] ;
646 -> 648 ;
649 [label="F7 <= 3996.155\ngini = 0.302\nsamples = 194\nvalue = [158, 36]\nclass = close", fillcolor="#eb9e66"] ;
645 -> 649 ;
650 [label="O2 <= 4610.0\ngini = 0.447\nsamples = 95\nvalue = [63, 32]\nclass = close", fillcolor="#f2c19e"] ;
649 -> 650 ;
651 [label="F7 <= 3973.59\ngini = 0.478\nsamples = 33\nvalue = [13, 20]\nclass = open", fillcolor="#baddf6"] ;
650 -> 651 ;
652 [label="gini = 0.0\nsamples = 5\nvalue = [5, 0]\nclass = close", fillcolor="#e58139"] ;
651 -> 652 ;
653 [label="O1 <= 4047.435\ngini = 0.408\nsamples = 28\nvalue = [8, 20]\nclass = open", fillcolor="#88c4ef"] ;
651 -> 653 ;
654 [label="F3 <= 4260.77\ngini = 0.494\nsamples = 18\nvalue = [8, 10]\nclass = open", fillcolor="#d7ebfa"] ;
653 -> 654 ;
655 [label="FC6 <= 4190.765\ngini = 0.408\nsamples = 14\nvalue = [4, 10]\nclass = open", fillcolor="#88c4ef"] ;
654 -> 655 ;
656 [label="AF3 <= 4280.77\ngini = 0.375\nsamples = 4\nvalue = [3, 1]\nclass = close", fillcolor="#eeab7b"] ;
655 -> 656 ;
657 [label="gini = 0.0\nsamples = 3\nvalue = [3, 0]\nclass = close", fillcolor="#e58139"] ;
656 -> 657 ;
658 [label="gini = 0.0\nsamples = 1\nvalue = [0, 1]\nclass = open", fillcolor="#399de5"] ;
656 -> 658 ;
659 [label="P7 <= 4613.075\ngini = 0.18\nsamples = 10\nvalue = [1, 9]\nclass = open", fillcolor="#4fa8e8"] ;
655 -> 659 ;
660 [label="gini = 0.0\nsamples = 1\nvalue = [1, 0]\nclass = close", fillcolor="#e58139"] ;
659 -> 660 ;
661 [label="gini = 0.0\nsamples = 9\nvalue = [0, 9]\nclass = open", fillcolor="#399de5"] ;
659 -> 661 ;
662 [label="gini = 0.0\nsamples = 4\nvalue = [4, 0]\nclass = close", fillcolor="#e58139"] ;
654 -> 662 ;
663 [label="gini = 0.0\nsamples = 10\nvalue = [0, 10]\nclass = open", fillcolor="#399de5"] ;
653 -> 663 ;
664 [label="FC6 <= 4203.59\ngini = 0.312\nsamples = 62\nvalue = [50, 12]\nclass = close", fillcolor="#eb9f69"] ;
650 -> 664 ;
665 [label="F7 <= 3995.64\ngini = 0.102\nsamples = 37\nvalue = [35, 2]\nclass = close", fillcolor="#e68844"] ;
664 -> 665 ;
666 [label="F8 <= 4606.665\ngini = 0.054\nsamples = 36\nvalue = [35, 1]\nclass = close", fillcolor="#e6853f"] ;
665 -> 666 ;
667 [label="gini = 0.0\nsamples = 34\nvalue = [34, 0]\nclass = close", fillcolor="#e58139"] ;
666 -> 667 ;
668 [label="F3 <= 4254.615\ngini = 0.5\nsamples = 2\nvalue = [1, 1]\nclass = close", fillcolor="#ffffff"] ;
666 -> 668 ;
669 [label="gini = 0.0\nsamples = 1\nvalue = [1, 0]\nclass = close", fillcolor="#e58139"] ;
668 -> 669 ;
670 [label="gini = 0.0\nsamples = 1\nvalue = [0, 1]\nclass = open", fillcolor="#399de5"] ;
668 -> 670 ;
671 [label="gini = 0.0\nsamples = 1\nvalue = [0, 1]\nclass = open", fillcolor="#399de5"] ;
665 -> 671 ;
672 [label="F4 <= 4271.28\ngini = 0.48\nsamples = 25\nvalue = [15, 10]\nclass = close", fillcolor="#f6d5bd"] ;
664 -> 672 ;
673 [label="gini = 0.0\nsamples = 7\nvalue = [0, 7]\nclass = open", fillcolor="#399de5"] ;
672 -> 673 ;
674 [label="F3 <= 4251.28\ngini = 0.278\nsamples = 18\nvalue = [15, 3]\nclass = close", fillcolor="#ea9a61"] ;
672 -> 674 ;
675 [label="FC6 <= 4209.23\ngini = 0.444\nsamples = 3\nvalue = [1, 2]\nclass = open", fillcolor="#9ccef2"] ;
674 -> 675 ;
676 [label="gini = 0.0\nsamples = 1\nvalue = [1, 0]\nclass = close", fillcolor="#e58139"] ;
675 -> 676 ;
677 [label="gini = 0.0\nsamples = 2\nvalue = [0, 2]\nclass = open", fillcolor="#399de5"] ;
675 -> 677 ;
678 [label="AF3 <= 4283.075\ngini = 0.124\nsamples = 15\nvalue = [14, 1]\nclass = close", fillcolor="#e78a47"] ;
674 -> 678 ;
679 [label="gini = 0.0\nsamples = 1\nvalue = [0, 1]\nclass = open", fillcolor="#399de5"] ;
678 -> 679 ;
680 [label="gini = 0.0\nsamples = 14\nvalue = [14, 0]\nclass = close", fillcolor="#e58139"] ;
678 -> 680 ;
681 [label="AF4 <= 4360.77\ngini = 0.078\nsamples = 99\nvalue = [95, 4]\nclass = close", fillcolor="#e68641"] ;
649 -> 681 ;
682 [label="AF3 <= 4302.31\ngini = 0.021\nsamples = 95\nvalue = [94, 1]\nclass = close", fillcolor="#e5823b"] ;
681 -> 682 ;
683 [label="gini = 0.0\nsamples = 94\nvalue = [94, 0]\nclass = close", fillcolor="#e58139"] ;
682 -> 683 ;
684 [label="gini = 0.0\nsamples = 1\nvalue = [0, 1]\nclass = open", fillcolor="#399de5"] ;
682 -> 684 ;
685 [label="F8 <= 4600.0\ngini = 0.375\nsamples = 4\nvalue = [1, 3]\nclass = open", fillcolor="#7bbeee"] ;
681 -> 685 ;
686 [label="gini = 0.0\nsamples = 1\nvalue = [1, 0]\nclass = close", fillcolor="#e58139"] ;
685 -> 686 ;
687 [label="gini = 0.0\nsamples = 3\nvalue = [0, 3]\nclass = open", fillcolor="#399de5"] ;
685 -> 687 ;
688 [label="O1 <= 4086.925\ngini = 0.496\nsamples = 1178\nvalue = [534, 644]\nclass = open", fillcolor="#ddeefb"] ;
644 -> 688 ;
689 [label="AF3 <= 4281.795\ngini = 0.491\nsamples = 1115\nvalue = [481, 634]\nclass = open", fillcolor="#cfe7f9"] ;
688 -> 689 ;
690 [label="O1 <= 4062.82\ngini = 0.42\nsamples = 333\nvalue = [100, 233]\nclass = open", fillcolor="#8ec7f0"] ;
689 -> 690 ;
691 [label="O2 <= 4625.385\ngini = 0.499\nsamples = 124\nvalue = [59, 65]\nclass = open", fillcolor="#edf6fd"] ;
690 -> 691 ;
692 [label="F7 <= 3993.59\ngini = 0.466\nsamples = 100\nvalue = [37, 63]\nclass = open", fillcolor="#add7f4"] ;
691 -> 692 ;
693 [label="F8 <= 4590.77\ngini = 0.359\nsamples = 64\nvalue = [15, 49]\nclass = open", fillcolor="#76bbed"] ;
692 -> 693 ;
694 [label="O2 <= 4609.485\ngini = 0.496\nsamples = 22\nvalue = [12, 10]\nclass = close", fillcolor="#fbeade"] ;
693 -> 694 ;
695 [label="gini = 0.0\nsamples = 5\nvalue = [0, 5]\nclass = open", fillcolor="#399de5"] ;
694 -> 695 ;
696 [label="T8 <= 4217.18\ngini = 0.415\nsamples = 17\nvalue = [12, 5]\nclass = close", fillcolor="#f0b58b"] ;
694 -> 696 ;
697 [label="AF3 <= 4274.36\ngini = 0.469\nsamples = 8\nvalue = [3, 5]\nclass = open", fillcolor="#b0d8f5"] ;
696 -> 697 ;
698 [label="gini = 0.0\nsamples = 5\nvalue = [0, 5]\nclass = open", fillcolor="#399de5"] ;
697 -> 698 ;
699 [label="gini = 0.0\nsamples = 3\nvalue = [3, 0]\nclass = close", fillcolor="#e58139"] ;
697 -> 699 ;
700 [label="gini = 0.0\nsamples = 9\nvalue = [9, 0]\nclass = close", fillcolor="#e58139"] ;
696 -> 700 ;
701 [label="O1 <= 4062.305\ngini = 0.133\nsamples = 42\nvalue = [3, 39]\nclass = open", fillcolor="#48a5e7"] ;
693 -> 701 ;
702 [label="P7 <= 4613.075\ngini = 0.093\nsamples = 41\nvalue = [2, 39]\nclass = open", fillcolor="#43a2e6"] ;
701 -> 702 ;
703 [label="O2 <= 4611.795\ngini = 0.375\nsamples = 8\nvalue = [2, 6]\nclass = open", fillcolor="#7bbeee"] ;
702 -> 703 ;
704 [label="F8 <= 4597.95\ngini = 0.444\nsamples = 3\nvalue = [2, 1]\nclass = close", fillcolor="#f2c09c"] ;
703 -> 704 ;
705 [label="gini = 0.0\nsamples = 1\nvalue = [0, 1]\nclass = open", fillcolor="#399de5"] ;
704 -> 705 ;
706 [label="gini = 0.0\nsamples = 2\nvalue = [2, 0]\nclass = close", fillcolor="#e58139"] ;
704 -> 706 ;
707 [label="gini = 0.0\nsamples = 5\nvalue = [0, 5]\nclass = open", fillcolor="#399de5"] ;
703 -> 707 ;
708 [label="gini = 0.0\nsamples = 33\nvalue = [0, 33]\nclass = open", fillcolor="#399de5"] ;
702 -> 708 ;
709 [label="gini = 0.0\nsamples = 1\nvalue = [1, 0]\nclass = close", fillcolor="#e58139"] ;
701 -> 709 ;
710 [label="F8 <= 4612.565\ngini = 0.475\nsamples = 36\nvalue = [22, 14]\nclass = close", fillcolor="#f6d1b7"] ;
692 -> 710 ;
711 [label="FC6 <= 4193.59\ngini = 0.499\nsamples = 27\nvalue = [13, 14]\nclass = open", fillcolor="#f1f8fd"] ;
710 -> 711 ;
712 [label="FC6 <= 4176.155\ngini = 0.444\nsamples = 18\nvalue = [12, 6]\nclass = close", fillcolor="#f2c09c"] ;
711 -> 712 ;
713 [label="gini = 0.0\nsamples = 2\nvalue = [0, 2]\nclass = open", fillcolor="#399de5"] ;
712 -> 713 ;
714 [label="O2 <= 4608.975\ngini = 0.375\nsamples = 16\nvalue = [12, 4]\nclass = close", fillcolor="#eeab7b"] ;
712 -> 714 ;
715 [label="O1 <= 4056.925\ngini = 0.5\nsamples = 8\nvalue = [4, 4]\nclass = close", fillcolor="#ffffff"] ;
714 -> 715 ;
716 [label="F8 <= 4606.41\ngini = 0.32\nsamples = 5\nvalue = [1, 4]\nclass = open", fillcolor="#6ab6ec"] ;
715 -> 716 ;
717 [label="gini = 0.0\nsamples = 4\nvalue = [0, 4]\nclass = open", fillcolor="#399de5"] ;
716 -> 717 ;
718 [label="gini = 0.0\nsamples = 1\nvalue = [1, 0]\nclass = close", fillcolor="#e58139"] ;
716 -> 718 ;
719 [label="gini = 0.0\nsamples = 3\nvalue = [3, 0]\nclass = close", fillcolor="#e58139"] ;
715 -> 719 ;
720 [label="gini = 0.0\nsamples = 8\nvalue = [8, 0]\nclass = close", fillcolor="#e58139"] ;
714 -> 720 ;
721 [label="F7 <= 3994.36\ngini = 0.198\nsamples = 9\nvalue = [1, 8]\nclass = open", fillcolor="#52a9e8"] ;
711 -> 721 ;
722 [label="gini = 0.0\nsamples = 1\nvalue = [1, 0]\nclass = close", fillcolor="#e58139"] ;
721 -> 722 ;
723 [label="gini = 0.0\nsamples = 8\nvalue = [0, 8]\nclass = open", fillcolor="#399de5"] ;
721 -> 723 ;
724 [label="gini = 0.0\nsamples = 9\nvalue = [9, 0]\nclass = close", fillcolor="#e58139"] ;
710 -> 724 ;
725 [label="AF4 <= 4348.72\ngini = 0.153\nsamples = 24\nvalue = [22, 2]\nclass = close", fillcolor="#e78c4b"] ;
691 -> 725 ;
726 [label="gini = 0.0\nsamples = 22\nvalue = [22, 0]\nclass = close", fillcolor="#e58139"] ;
725 -> 726 ;
727 [label="gini = 0.0\nsamples = 2\nvalue = [0, 2]\nclass = open", fillcolor="#399de5"] ;
725 -> 727 ;
728 [label="FC6 <= 4171.535\ngini = 0.315\nsamples = 209\nvalue = [41, 168]\nclass = open", fillcolor="#69b5eb"] ;
690 -> 728 ;
729 [label="gini = 0.0\nsamples = 7\nvalue = [7, 0]\nclass = close", fillcolor="#e58139"] ;
728 -> 729 ;
730 [label="F8 <= 4603.845\ngini = 0.28\nsamples = 202\nvalue = [34, 168]\nclass = open", fillcolor="#61b1ea"] ;
728 -> 730 ;
731 [label="P8 <= 4219.23\ngini = 0.192\nsamples = 177\nvalue = [19, 158]\nclass = open", fillcolor="#51a9e8"] ;
730 -> 731 ;
732 [label="AF4 <= 4336.155\ngini = 0.175\nsamples = 175\nvalue = [17, 158]\nclass = open", fillcolor="#4ea8e8"] ;
731 -> 732 ;
733 [label="gini = 0.0\nsamples = 72\nvalue = [0, 72]\nclass = open", fillcolor="#399de5"] ;
732 -> 733 ;
734 [label="F3 <= 4245.64\ngini = 0.276\nsamples = 103\nvalue = [17, 86]\nclass = open", fillcolor="#60b0ea"] ;
732 -> 734 ;
735 [label="P8 <= 4204.105\ngini = 0.469\nsamples = 8\nvalue = [5, 3]\nclass = close", fillcolor="#f5cdb0"] ;
734 -> 735 ;
736 [label="F8 <= 4583.08\ngini = 0.278\nsamples = 6\nvalue = [5, 1]\nclass = close", fillcolor="#ea9a61"] ;
735 -> 736 ;
737 [label="gini = 0.0\nsamples = 1\nvalue = [0, 1]\nclass = open", fillcolor="#399de5"] ;
736 -> 737 ;
738 [label="gini = 0.0\nsamples = 5\nvalue = [5, 0]\nclass = close", fillcolor="#e58139"] ;
736 -> 738 ;
739 [label="gini = 0.0\nsamples = 2\nvalue = [0, 2]\nclass = open", fillcolor="#399de5"] ;
735 -> 739 ;
740 [label="AF4 <= 4363.59\ngini = 0.221\nsamples = 95\nvalue = [12, 83]\nclass = open", fillcolor="#56abe9"] ;
734 -> 740 ;
741 [label="FC6 <= 4174.615\ngini = 0.207\nsamples = 94\nvalue = [11, 83]\nclass = open", fillcolor="#53aae8"] ;
740 -> 741 ;
742 [label="gini = 0.0\nsamples = 1\nvalue = [1, 0]\nclass = close", fillcolor="#e58139"] ;
741 -> 742 ;
743 [label="P8 <= 4190.77\ngini = 0.192\nsamples = 93\nvalue = [10, 83]\nclass = open", fillcolor="#51a9e8"] ;
741 -> 743 ;
744 [label="F3 <= 4253.59\ngini = 0.43\nsamples = 16\nvalue = [5, 11]\nclass = open", fillcolor="#93caf1"] ;
743 -> 744 ;
745 [label="T7 <= 4327.95\ngini = 0.278\nsamples = 6\nvalue = [5, 1]\nclass = close", fillcolor="#ea9a61"] ;
744 -> 745 ;
746 [label="gini = 0.0\nsamples = 1\nvalue = [0, 1]\nclass = open", fillcolor="#399de5"] ;
745 -> 746 ;
747 [label="gini = 0.0\nsamples = 5\nvalue = [5, 0]\nclass = close", fillcolor="#e58139"] ;
745 -> 747 ;
748 [label="gini = 0.0\nsamples = 10\nvalue = [0, 10]\nclass = open", fillcolor="#399de5"] ;
744 -> 748 ;
749 [label="P7 <= 4612.05\ngini = 0.121\nsamples = 77\nvalue = [5, 72]\nclass = open", fillcolor="#47a4e7"] ;
743 -> 749 ;
750 [label="gini = 0.0\nsamples = 1\nvalue = [1, 0]\nclass = close", fillcolor="#e58139"] ;
749 -> 750 ;
751 [label="O2 <= 4611.535\ngini = 0.1\nsamples = 76\nvalue = [4, 72]\nclass = open", fillcolor="#44a2e6"] ;
749 -> 751 ;
752 [label="F3 <= 4256.665\ngini = 0.397\nsamples = 11\nvalue = [3, 8]\nclass = open", fillcolor="#83c2ef"] ;
751 -> 752 ;
753 [label="gini = 0.0\nsamples = 7\nvalue = [0, 7]\nclass = open", fillcolor="#399de5"] ;
752 -> 753 ;
754 [label="O2 <= 4603.075\ngini = 0.375\nsamples = 4\nvalue = [3, 1]\nclass = close", fillcolor="#eeab7b"] ;
752 -> 754 ;
755 [label="gini = 0.0\nsamples = 1\nvalue = [0, 1]\nclass = open", fillcolor="#399de5"] ;
754 -> 755 ;
756 [label="gini = 0.0\nsamples = 3\nvalue = [3, 0]\nclass = close", fillcolor="#e58139"] ;
754 -> 756 ;
757 [label="O1 <= 4063.845\ngini = 0.03\nsamples = 65\nvalue = [1, 64]\nclass = open", fillcolor="#3c9fe5"] ;
751 -> 757 ;
758 [label="T8 <= 4231.535\ngini = 0.444\nsamples = 3\nvalue = [1, 2]\nclass = open", fillcolor="#9ccef2"] ;
757 -> 758 ;
759 [label="gini = 0.0\nsamples = 2\nvalue = [0, 2]\nclass = open", fillcolor="#399de5"] ;
758 -> 759 ;
760 [label="gini = 0.0\nsamples = 1\nvalue = [1, 0]\nclass = close", fillcolor="#e58139"] ;
758 -> 760 ;
761 [label="gini = 0.0\nsamples = 62\nvalue = [0, 62]\nclass = open", fillcolor="#399de5"] ;
757 -> 761 ;
762 [label="gini = 0.0\nsamples = 1\nvalue = [1, 0]\nclass = close", fillcolor="#e58139"] ;
740 -> 762 ;
763 [label="gini = 0.0\nsamples = 2\nvalue = [2, 0]\nclass = close", fillcolor="#e58139"] ;
731 -> 763 ;
764 [label="FC6 <= 4200.515\ngini = 0.48\nsamples = 25\nvalue = [15, 10]\nclass = close", fillcolor="#f6d5bd"] ;
730 -> 764 ;
765 [label="T7 <= 4344.615\ngini = 0.124\nsamples = 15\nvalue = [14, 1]\nclass = close", fillcolor="#e78a47"] ;
764 -> 765 ;
766 [label="gini = 0.0\nsamples = 14\nvalue = [14, 0]\nclass = close", fillcolor="#e58139"] ;
765 -> 766 ;
767 [label="gini = 0.0\nsamples = 1\nvalue = [0, 1]\nclass = open", fillcolor="#399de5"] ;
765 -> 767 ;
768 [label="O2 <= 4606.155\ngini = 0.18\nsamples = 10\nvalue = [1, 9]\nclass = open", fillcolor="#4fa8e8"] ;
764 -> 768 ;
769 [label="gini = 0.0\nsamples = 1\nvalue = [1, 0]\nclass = close", fillcolor="#e58139"] ;
768 -> 769 ;
770 [label="gini = 0.0\nsamples = 9\nvalue = [0, 9]\nclass = open", fillcolor="#399de5"] ;
768 -> 770 ;
771 [label="F3 <= 4252.565\ngini = 0.5\nsamples = 782\nvalue = [381, 401]\nclass = open", fillcolor="#f5fafe"] ;
689 -> 771 ;
772 [label="FC5 <= 4112.565\ngini = 0.37\nsamples = 147\nvalue = [111, 36]\nclass = close", fillcolor="#edaa79"] ;
771 -> 772 ;
773 [label="F4 <= 4268.465\ngini = 0.221\nsamples = 95\nvalue = [83, 12]\nclass = close", fillcolor="#e99356"] ;
772 -> 773 ;
774 [label="F7 <= 3984.36\ngini = 0.391\nsamples = 30\nvalue = [22, 8]\nclass = close", fillcolor="#eeaf81"] ;
773 -> 774 ;
775 [label="FC6 <= 4191.28\ngini = 0.48\nsamples = 10\nvalue = [4, 6]\nclass = open", fillcolor="#bddef6"] ;
774 -> 775 ;
776 [label="O2 <= 4595.64\ngini = 0.32\nsamples = 5\nvalue = [4, 1]\nclass = close", fillcolor="#eca06a"] ;
775 -> 776 ;
777 [label="gini = 0.0\nsamples = 1\nvalue = [0, 1]\nclass = open", fillcolor="#399de5"] ;
776 -> 777 ;
778 [label="gini = 0.0\nsamples = 4\nvalue = [4, 0]\nclass = close", fillcolor="#e58139"] ;
776 -> 778 ;
779 [label="gini = 0.0\nsamples = 5\nvalue = [0, 5]\nclass = open", fillcolor="#399de5"] ;
775 -> 779 ;
780 [label="AF4 <= 4340.77\ngini = 0.18\nsamples = 20\nvalue = [18, 2]\nclass = close", fillcolor="#e88f4f"] ;
774 -> 780 ;
781 [label="O1 <= 4057.18\ngini = 0.444\nsamples = 3\nvalue = [1, 2]\nclass = open", fillcolor="#9ccef2"] ;
780 -> 781 ;
782 [label="gini = 0.0\nsamples = 2\nvalue = [0, 2]\nclass = open", fillcolor="#399de5"] ;
781 -> 782 ;
783 [label="gini = 0.0\nsamples = 1\nvalue = [1, 0]\nclass = close", fillcolor="#e58139"] ;
781 -> 783 ;
784 [label="gini = 0.0\nsamples = 17\nvalue = [17, 0]\nclass = close", fillcolor="#e58139"] ;
780 -> 784 ;
785 [label="T8 <= 4252.31\ngini = 0.116\nsamples = 65\nvalue = [61, 4]\nclass = close", fillcolor="#e78946"] ;
773 -> 785 ;
786 [label="F7 <= 4013.59\ngini = 0.089\nsamples = 64\nvalue = [61, 3]\nclass = close", fillcolor="#e68743"] ;
785 -> 786 ;
787 [label="F8 <= 4608.465\ngini = 0.061\nsamples = 63\nvalue = [61, 2]\nclass = close", fillcolor="#e6853f"] ;
786 -> 787 ;
788 [label="gini = 0.0\nsamples = 48\nvalue = [48, 0]\nclass = close", fillcolor="#e58139"] ;
787 -> 788 ;
789 [label="AF4 <= 4346.155\ngini = 0.231\nsamples = 15\nvalue = [13, 2]\nclass = close", fillcolor="#e99457"] ;
787 -> 789 ;
790 [label="gini = 0.0\nsamples = 1\nvalue = [0, 1]\nclass = open", fillcolor="#399de5"] ;
789 -> 790 ;
791 [label="FC6 <= 4183.335\ngini = 0.133\nsamples = 14\nvalue = [13, 1]\nclass = close", fillcolor="#e78b48"] ;
789 -> 791 ;
792 [label="O2 <= 4609.23\ngini = 0.5\nsamples = 2\nvalue = [1, 1]\nclass = close", fillcolor="#ffffff"] ;
791 -> 792 ;
793 [label="gini = 0.0\nsamples = 1\nvalue = [0, 1]\nclass = open", fillcolor="#399de5"] ;
792 -> 793 ;
794 [label="gini = 0.0\nsamples = 1\nvalue = [1, 0]\nclass = close", fillcolor="#e58139"] ;
792 -> 794 ;
795 [label="gini = 0.0\nsamples = 12\nvalue = [12, 0]\nclass = close", fillcolor="#e58139"] ;
791 -> 795 ;
796 [label="gini = 0.0\nsamples = 1\nvalue = [0, 1]\nclass = open", fillcolor="#399de5"] ;
786 -> 796 ;
797 [label="gini = 0.0\nsamples = 1\nvalue = [0, 1]\nclass = open", fillcolor="#399de5"] ;
785 -> 797 ;
798 [label="O1 <= 4072.05\ngini = 0.497\nsamples = 52\nvalue = [28, 24]\nclass = close", fillcolor="#fbede3"] ;
772 -> 798 ;
799 [label="F7 <= 3994.36\ngini = 0.47\nsamples = 37\nvalue = [14, 23]\nclass = open", fillcolor="#b2d9f5"] ;
798 -> 799 ;
800 [label="gini = 0.0\nsamples = 9\nvalue = [0, 9]\nclass = open", fillcolor="#399de5"] ;
799 -> 800 ;
801 [label="FC5 <= 4117.95\ngini = 0.5\nsamples = 28\nvalue = [14, 14]\nclass = close", fillcolor="#ffffff"] ;
799 -> 801 ;
802 [label="FC5 <= 4113.335\ngini = 0.298\nsamples = 11\nvalue = [9, 2]\nclass = close", fillcolor="#eb9d65"] ;
801 -> 802 ;
803 [label="gini = 0.0\nsamples = 1\nvalue = [0, 1]\nclass = open", fillcolor="#399de5"] ;
802 -> 803 ;
804 [label="O1 <= 4053.59\ngini = 0.18\nsamples = 10\nvalue = [9, 1]\nclass = close", fillcolor="#e88f4f"] ;
802 -> 804 ;
805 [label="gini = 0.0\nsamples = 1\nvalue = [0, 1]\nclass = open", fillcolor="#399de5"] ;
804 -> 805 ;
806 [label="gini = 0.0\nsamples = 9\nvalue = [9, 0]\nclass = close", fillcolor="#e58139"] ;
804 -> 806 ;
807 [label="AF3 <= 4286.41\ngini = 0.415\nsamples = 17\nvalue = [5, 12]\nclass = open", fillcolor="#8bc6f0"] ;
801 -> 807 ;
808 [label="gini = 0.0\nsamples = 4\nvalue = [4, 0]\nclass = close", fillcolor="#e58139"] ;
807 -> 808 ;
809 [label="O2 <= 4618.715\ngini = 0.142\nsamples = 13\nvalue = [1, 12]\nclass = open", fillcolor="#49a5e7"] ;
807 -> 809 ;
810 [label="gini = 0.0\nsamples = 12\nvalue = [0, 12]\nclass = open", fillcolor="#399de5"] ;
809 -> 810 ;
811 [label="gini = 0.0\nsamples = 1\nvalue = [1, 0]\nclass = close", fillcolor="#e58139"] ;
809 -> 811 ;
812 [label="T8 <= 4225.13\ngini = 0.124\nsamples = 15\nvalue = [14, 1]\nclass = close", fillcolor="#e78a47"] ;
798 -> 812 ;
813 [label="T8 <= 4222.31\ngini = 0.5\nsamples = 2\nvalue = [1, 1]\nclass = close", fillcolor="#ffffff"] ;
812 -> 813 ;
814 [label="gini = 0.0\nsamples = 1\nvalue = [1, 0]\nclass = close", fillcolor="#e58139"] ;
813 -> 814 ;
815 [label="gini = 0.0\nsamples = 1\nvalue = [0, 1]\nclass = open", fillcolor="#399de5"] ;
813 -> 815 ;
816 [label="gini = 0.0\nsamples = 13\nvalue = [13, 0]\nclass = close", fillcolor="#e58139"] ;
812 -> 816 ;
817 [label="O2 <= 4611.025\ngini = 0.489\nsamples = 635\nvalue = [270, 365]\nclass = open", fillcolor="#cbe5f8"] ;
771 -> 817 ;
818 [label="T7 <= 4330.0\ngini = 0.422\nsamples = 241\nvalue = [73, 168]\nclass = open", fillcolor="#8fc8f0"] ;
817 -> 818 ;
819 [label="AF4 <= 4345.125\ngini = 0.067\nsamples = 58\nvalue = [2, 56]\nclass = open", fillcolor="#40a0e6"] ;
818 -> 819 ;
820 [label="AF3 <= 4292.82\ngini = 0.32\nsamples = 10\nvalue = [2, 8]\nclass = open", fillcolor="#6ab6ec"] ;
819 -> 820 ;
821 [label="gini = 0.0\nsamples = 8\nvalue = [0, 8]\nclass = open", fillcolor="#399de5"] ;
820 -> 821 ;
822 [label="gini = 0.0\nsamples = 2\nvalue = [2, 0]\nclass = close", fillcolor="#e58139"] ;
820 -> 822 ;
823 [label="gini = 0.0\nsamples = 48\nvalue = [0, 48]\nclass = open", fillcolor="#399de5"] ;
819 -> 823 ;
824 [label="FC5 <= 4108.975\ngini = 0.475\nsamples = 183\nvalue = [71, 112]\nclass = open", fillcolor="#b7dbf5"] ;
818 -> 824 ;
825 [label="AF4 <= 4341.795\ngini = 0.298\nsamples = 22\nvalue = [18, 4]\nclass = close", fillcolor="#eb9d65"] ;
824 -> 825 ;
826 [label="gini = 0.0\nsamples = 3\nvalue = [0, 3]\nclass = open", fillcolor="#399de5"] ;
825 -> 826 ;
827 [label="F4 <= 4286.67\ngini = 0.1\nsamples = 19\nvalue = [18, 1]\nclass = close", fillcolor="#e68844"] ;
825 -> 827 ;
828 [label="gini = 0.0\nsamples = 18\nvalue = [18, 0]\nclass = close", fillcolor="#e58139"] ;
827 -> 828 ;
829 [label="gini = 0.0\nsamples = 1\nvalue = [0, 1]\nclass = open", fillcolor="#399de5"] ;
827 -> 829 ;
830 [label="F7 <= 3996.665\ngini = 0.442\nsamples = 161\nvalue = [53, 108]\nclass = open", fillcolor="#9acdf2"] ;
824 -> 830 ;
831 [label="T7 <= 4343.59\ngini = 0.14\nsamples = 53\nvalue = [4, 49]\nclass = open", fillcolor="#49a5e7"] ;
830 -> 831 ;
832 [label="F8 <= 4617.695\ngini = 0.077\nsamples = 50\nvalue = [2, 48]\nclass = open", fillcolor="#41a1e6"] ;
831 -> 832 ;
833 [label="T7 <= 4330.515\ngini = 0.04\nsamples = 49\nvalue = [1, 48]\nclass = open", fillcolor="#3d9fe6"] ;
832 -> 833 ;
834 [label="F8 <= 4601.54\ngini = 0.5\nsamples = 2\nvalue = [1, 1]\nclass = close", fillcolor="#ffffff"] ;
833 -> 834 ;
835 [label="gini = 0.0\nsamples = 1\nvalue = [1, 0]\nclass = close", fillcolor="#e58139"] ;
834 -> 835 ;
836 [label="gini = 0.0\nsamples = 1\nvalue = [0, 1]\nclass = open", fillcolor="#399de5"] ;
834 -> 836 ;
837 [label="gini = 0.0\nsamples = 47\nvalue = [0, 47]\nclass = open", fillcolor="#399de5"] ;
833 -> 837 ;
838 [label="gini = 0.0\nsamples = 1\nvalue = [1, 0]\nclass = close", fillcolor="#e58139"] ;
832 -> 838 ;
839 [label="FC5 <= 4119.23\ngini = 0.444\nsamples = 3\nvalue = [2, 1]\nclass = close", fillcolor="#f2c09c"] ;
831 -> 839 ;
840 [label="gini = 0.0\nsamples = 2\nvalue = [2, 0]\nclass = close", fillcolor="#e58139"] ;
839 -> 840 ;
841 [label="gini = 0.0\nsamples = 1\nvalue = [0, 1]\nclass = open", fillcolor="#399de5"] ;
839 -> 841 ;
842 [label="T8 <= 4238.205\ngini = 0.496\nsamples = 108\nvalue = [49, 59]\nclass = open", fillcolor="#ddeefb"] ;
830 -> 842 ;
843 [label="P8 <= 4186.925\ngini = 0.484\nsamples = 100\nvalue = [41, 59]\nclass = open", fillcolor="#c3e1f7"] ;
842 -> 843 ;
844 [label="T7 <= 4343.845\ngini = 0.363\nsamples = 21\nvalue = [16, 5]\nclass = close", fillcolor="#eda877"] ;
843 -> 844 ;
845 [label="F4 <= 4281.285\ngini = 0.124\nsamples = 15\nvalue = [14, 1]\nclass = close", fillcolor="#e78a47"] ;
844 -> 845 ;
846 [label="gini = 0.0\nsamples = 14\nvalue = [14, 0]\nclass = close", fillcolor="#e58139"] ;
845 -> 846 ;
847 [label="gini = 0.0\nsamples = 1\nvalue = [0, 1]\nclass = open", fillcolor="#399de5"] ;
845 -> 847 ;
848 [label="F7 <= 4010.515\ngini = 0.444\nsamples = 6\nvalue = [2, 4]\nclass = open", fillcolor="#9ccef2"] ;
844 -> 848 ;
849 [label="gini = 0.0\nsamples = 4\nvalue = [0, 4]\nclass = open", fillcolor="#399de5"] ;
848 -> 849 ;
850 [label="gini = 0.0\nsamples = 2\nvalue = [2, 0]\nclass = close", fillcolor="#e58139"] ;
848 -> 850 ;
851 [label="F8 <= 4619.485\ngini = 0.433\nsamples = 79\nvalue = [25, 54]\nclass = open", fillcolor="#95caf1"] ;
843 -> 851 ;
852 [label="F8 <= 4601.795\ngini = 0.394\nsamples = 74\nvalue = [20, 54]\nclass = open", fillcolor="#82c1ef"] ;
851 -> 852 ;
853 [label="AF4 <= 4342.305\ngini = 0.492\nsamples = 39\nvalue = [17, 22]\nclass = open", fillcolor="#d2e9f9"] ;
852 -> 853 ;
854 [label="gini = 0.0\nsamples = 9\nvalue = [0, 9]\nclass = open", fillcolor="#399de5"] ;
853 -> 854 ;
855 [label="O2 <= 4606.925\ngini = 0.491\nsamples = 30\nvalue = [17, 13]\nclass = close", fillcolor="#f9e1d0"] ;
853 -> 855 ;
856 [label="F7 <= 4001.025\ngini = 0.48\nsamples = 20\nvalue = [8, 12]\nclass = open", fillcolor="#bddef6"] ;
855 -> 856 ;
857 [label="gini = 0.0\nsamples = 3\nvalue = [3, 0]\nclass = close", fillcolor="#e58139"] ;
856 -> 857 ;
858 [label="FC5 <= 4127.18\ngini = 0.415\nsamples = 17\nvalue = [5, 12]\nclass = open", fillcolor="#8bc6f0"] ;
856 -> 858 ;
859 [label="FC5 <= 4113.08\ngini = 0.165\nsamples = 11\nvalue = [1, 10]\nclass = open", fillcolor="#4da7e8"] ;
858 -> 859 ;
860 [label="gini = 0.0\nsamples = 1\nvalue = [1, 0]\nclass = close", fillcolor="#e58139"] ;
859 -> 860 ;
861 [label="gini = 0.0\nsamples = 10\nvalue = [0, 10]\nclass = open", fillcolor="#399de5"] ;
859 -> 861 ;
862 [label="T7 <= 4340.77\ngini = 0.444\nsamples = 6\nvalue = [4, 2]\nclass = close", fillcolor="#f2c09c"] ;
858 -> 862 ;
863 [label="gini = 0.0\nsamples = 4\nvalue = [4, 0]\nclass = close", fillcolor="#e58139"] ;
862 -> 863 ;
864 [label="gini = 0.0\nsamples = 2\nvalue = [0, 2]\nclass = open", fillcolor="#399de5"] ;
862 -> 864 ;
865 [label="F4 <= 4278.205\ngini = 0.18\nsamples = 10\nvalue = [9, 1]\nclass = close", fillcolor="#e88f4f"] ;
855 -> 865 ;
866 [label="gini = 0.0\nsamples = 9\nvalue = [9, 0]\nclass = close", fillcolor="#e58139"] ;
865 -> 866 ;
867 [label="gini = 0.0\nsamples = 1\nvalue = [0, 1]\nclass = open", fillcolor="#399de5"] ;
865 -> 867 ;
868 [label="O1 <= 4077.18\ngini = 0.157\nsamples = 35\nvalue = [3, 32]\nclass = open", fillcolor="#4ca6e7"] ;
852 -> 868 ;
869 [label="O2 <= 4590.0\ngini = 0.059\nsamples = 33\nvalue = [1, 32]\nclass = open", fillcolor="#3fa0e6"] ;
868 -> 869 ;
870 [label="gini = 0.0\nsamples = 1\nvalue = [1, 0]\nclass = close", fillcolor="#e58139"] ;
869 -> 870 ;
871 [label="gini = 0.0\nsamples = 32\nvalue = [0, 32]\nclass = open", fillcolor="#399de5"] ;
869 -> 871 ;
